tree
version=v4
num_class=1
num_tree_per_iteration=1
label_index=0
max_feature_idx=29
objective=binary sigmoid:1
feature_names=Column_0 Column_1 Column_2 Column_3 Column_4 Column_5 Column_6 Column_7 Column_8 Column_9 Column_10 Column_11 Column_12 Column_13 Column_14 Column_15 Column_16 Column_17 Column_18 Column_19 Column_20 Column_21 Column_22 Column_23 Column_24 Column_25 Column_26 Column_27 Column_28 Column_29
feature_infos=[-18.102904750480874:1.0863890452819598] [-45.242471736705689:15.690610811018217] [-17.630092861189908:2.0435474238670603] [-3.5590765761850958:10.511497771269664] [-30.966513397270134:25.286510575243504] [-18.564908449668504:20.741110918926118] [-38.79864301988642:39.175818894008856] [-94.28444409361795:37.356782178512198] [-10.773335979988879:8.4064660896912766] [-24.710309872541348:15.462680025812139] [-2.8658539629649589:8.0220240314731974] [-18.221206371096187:4.3229923255172489] [-3.0052731117779046:3.4120990920887535] [-20.968214324349095:8.3853403279515017] [-3.6860773563780511:4.5713596856440963] [-14.3237656685895:7.054668509192628] [-28.397535840147196:10.493064920726331] [-9.5064126849396651:5.0517241255125525] [-7.8773445968325229:6.0765952469459386] [-68.37963546826721:114.4760552971307] [-54.983926738739861:65.498143312618495] [-10.195250539409962:7.7861069031493404] [-144.78220041443441:71.408734940635895] [-3.5967443374861015:4.9737293907449809] [-15.452575532589755:9.0703503282804281] [-4.3657752717025184:5.5780191513674868] [-61.351571927807164:75.33111573019842] [-63.54810750663755:121.02894186139277] [-0.3059379780280907:273.04310944235851] [-4.7080506903140611:2.6006627122443304]
tree_sizes=26441 29315 50650 41884 30910 29425 29260 30564 30966 26364 27238 33802 29511 25394 20251 29911 24194 17420 19609 19933 21378 26485 20925 30832 22096 27203 26841 21445 21334 11190 9846 15123 13116 16661 13725 12730 11244 11942 10918 9696 6969 5012 7516 6764 5143 6620 2858 3515 5243 6481 2986 2441 2879 2557 5046 1678 2003 1351 2010 1581 485 1579 707 1355 696 1685 1685 1138 1891 1243 377 1356 1137 591 1146 378 1129 373 710 597 589 486 376 591 377 379 378 378 378 379 376 485 377 812 1243 484

Tree=0
num_leaves=285
num_cat=0
split_feature=16 16 8 16 23 6 8 24 6 6 16 24 6 23 8 16 8 16 24 16 6 12 12 24 16 6 23 12 16 16 6 8 6 12 8 24 12 24 8 16 8 12 12 8 6 8 12 6 24 8 12 24 24 6 12 24 16 8 6 8 12 8 12 8 8 24 23 8 8 24 8 23 24 24 8 6 6 8 12 23 12 12 6 6 12 24 8 23 23 6 24 6 6 23 23 23 24 16 23 23 6 23 24 6 8 24 23 8 23 6 12 8 24 16 23 16 23 8 6 12 12 23 16 12 6 12 12 24 8 6 8 8 6 8 23 16 16 23 12 24 24 23 6 23 6 8 12 24 24 6 8 8 23 6 8 6 8 16 23 24 12 12 6 6 16 23 6 23 24 16 23 12 24 8 23 8 24 16 8 8 12 12 6 8 6 23 23 23 23 6 23 23 23 24 23 6 6 16 23 12 24 16 6 23 8 23 23 23 8 6 8 23 24 23 12 8 23 12 8 24 8 12 8 23 12 12 12 12 24 8 12 16 23 8 24 24 8 24 23 6 12 8 8 6 24 24 24 8 16 6 6 23 6 23 12 23 8 24 12 8 24 6 6 16 12 23 23 23 24 16 6 8 8 24 16 6 24 8 16 6 16 16 8 12
split_gain=234370 29180.1 19775.8 5409.45 2740.24 2399.39 3872.49 2641.85 2147.39 1935.46 1881.75 1662.35 1209.77 1134.78 996.06 965.341 770.635 549.152 547.268 519.952 513.257 514.809 509.552 508.363 485.138 1223.27 448.88 433.552 432.701 394.719 391.797 382.023 361.594 340.906 532.148 528.216 521.811 432.934 328.614 674.224 353.212 328.464 328.383 294.937 289.293 275.327 296.726 306.967 483.102 397.261 278.481 374.683 430.78 393.528 341.973 443.24 298.963 272.001 337.813 295.631 283.411 409.987 309.536 267.219 260.391 259.589 250.844 247.892 246.092 288.106 237.337 237.039 231.158 256.616 228.688 226.626 224.085 222.894 220.189 209.916 205.179 277.45 375.536 199.322 195.912 269.217 239.768 210.746 449.094 280.155 242.574 197.776 190.948 187.163 210.436 178.985 175.668 164.099 162.873 331.948 153.557 153.235 152.354 148.877 145.088 137.637 136.081 135.801 219.771 163.873 148.483 130.158 127.354 126.983 124.425 138.498 126.96 121.625 118.309 117.151 115.638 108.476 108.323 103.226 103.007 99.0787 99.0088 96.2032 94.279 94.0444 93.9815 325.068 110.326 91.7794 89.6384 88.2712 87.7678 87.4947 84.6912 84.0251 112.523 99.4329 164.218 83.516 83.2481 118.416 80.0482 78.9969 96.1227 103.228 79.7707 78.9414 78.389 74.6295 71.7613 123.993 77.9508 70.2186 69.6945 63.8513 115.272 61.4972 60.6355 59.0789 58.9192 58.0018 57.764 56.4113 52.9843 52.6655 52.0898 219.771 50.2385 46.7387 46.5799 43.0637 112.252 41.054 41.028 38.9668 43.8328 38.6247 35.3744 34.3922 59.7801 34.0563 32.2152 69.0378 31.0715 30.8676 28.3315 27.8526 27.5861 64.7534 27.5098 27.0178 25.4141 25.1401 60.9196 70.9478 24.6346 33.6603 34.4317 24.2855 24.1789 23.9032 27.918 23.7899 57.2203 56.6079 22.4726 21.3045 20.3233 19.4123 17.0258 20.6114 23.8808 34.557 15.41 33.9841 14.9868 46.9619 14.9129 14.0442 13.4614 13.308 19.4919 12.5531 12.0398 11.7851 11.4104 11.1791 23.9025 9.50411 23.4505 9.24191 9.11241 12.843 9.10522 9.08361 9.43232 8.25467 17.5466 8.04762 7.53272 7.25466 7.04705 11.5559 24.313 6.7509 6.63645 6.5079 6.48246 5.80008 5.75402 7.03798 5.6856 5.64885 5.53751 4.66032 4.63054 4.3326 4.02561 5.23068 3.67488 3.85499 7.18501 3.4674 6.89938 3.24932 24.624 3.68665 2.94318 2.90193 2.59467 2.31234 2.06996 1.93143 1.86704 1.71679 1.59697 1.53193 1.51561 1.38438
threshold=-1.5265760325901301 0.99379772180333104 -1.9790771999837791 4.5884251423494691 0.51807549678230558 -0.085990598417919034 -1.7009195670896184 -0.22071857866332883 -1.5339404215043964 -0.4709984749170007 -0.69051623357148872 1.0188870942523052 0.84428529838851374 -1.3482044037921022 0.97862106616832767 0.68263989597239083 1.8067844898008596 -4.0195120381272771 -1.6809563648321775 1.6327342137675311 0.84428529838851374 -0.52552110432687194 -0.47998590717052853 -0.94598963539681735 -2.4176548267426061 -0.82888159173478082 -0.79718135034005211 0.21988425667432429 -0.17643723555148702 -0.056681317400551469 0.84428529838851374 0.86038297363250182 -0.085990598417919034 0.31444325239489307 0.40309949291191954 -0.25883065459685151 -1.2595381948543058 -1.3647982487927999 -1.0146466693055143 -0.69051623357148872 -1.3472221172167809 -0.94249519423467099 -1.0798234111060492 0.97862106616832767 -0.53645340045293555 0.40309949291191954 0.31444325239489307 0.53158306917277143 -0.36882615415291203 -0.503197299121104 0.71520341917773844 -0.036179980410662491 -0.61219725803186398 0.20028446036554895 -1.0071678516887455 -0.66328940447303508 0.40193016483765848 -0.34050717599973884 -0.040596373073800381 0.34226584685712291 -0.35001082679817125 1.0000000180025095e-35 -0.79831156917205037 -0.39328246909176062 -0.44760299841683343 -0.44263946837666968 0.44976539554100631 0.08171172311478557 0.46415668559341355 -0.071396759318438183 0.76138089240754769 -0.16539898592747412 -0.72028169372315443 0.68898753945659774 0.46415668559341355 0.40819506013665635 -0.40285531472750408 0.76138089240754769 0.61155221362792789 0.34546981069380328 -0.066898381211782529 -0.35001082679817125 -2.8326676105202009 -1.3964673068357991 0.25202384456823429 0.57492494423129847 -1.3472221172167809 -0.041148502550988092 -0.96306623320461548 0.29455252424754969 1.0188870942523052 -0.040596373073800381 0.53158306917277143 1.0000000180025095e-35 0.44976539554100631 0.72542919310745091 -0.25883065459685151 -0.69051623357148872 -0.6767361609943755 -1.2165761273065672 -2.3564750701806392 -0.59914296867017314 0.23170606908290334 0.29455252424754969 -0.1224772125638464 0.4871235741291598 1.0000000180025095e-35 -0.6124226253622379 0.070251594805923426 0.53158306917277143 0.41456403470362985 -0.080900177131841125 -0.77808169163022989 -0.35215576135934284 -0.084544893441717159 0.054431481867545574 0.34546981069380328 -0.39328246909176062 -1.004282535970167 0.48895239158027498 0.21988425667432429 -0.35163806955505195 0.88517534395932629 -0.16793194469656078 0.59674354793288042 0.19347442724650826 0.71520341917773844 -1.1723295047147693 0.08171172311478557 -1.2411245083757967 0.68023113763447995 0.86038297363250182 -0.53645340045293555 -0.6729318985848064 0.44976539554100631 1.9617343213119895 0.22474441653688451 1.0000000180025095e-35 0.5256897228170786 -0.66328940447303508 0.73296877250567227 0.15878773257427564 1.6581776175921916 -0.35163806955505195 -2.5666066152205462 1.1421442134988244 0.21988425667432429 0.26590399254384295 -0.8538225737398224 1.1067302561897352 0.52677083006698178 0.12704298368111375 -0.020516140581002335 0.59674354793288042 -0.1224772125638464 1.1067302561897352 -0.040204200022378213 -0.61508474290399395 0.070251594805923426 -0.61219725803186398 -0.84485258880111169 -0.75287883981648052 -0.90446680087594145 0.078686371209958417 2.5119584055009168 -0.020516140581002335 -1.7000006802190131 0.30004651605230342 -0.25883065459685151 1.9617343213119895 0.070251594805923426 0.83790566886712936 -0.36882615415291203 -0.6124226253622379 0.51807549678230558 -0.6124226253622379 0.41796049608143071 0.34073595614517077 0.59783322996402599 0.59783322996402599 -0.94249519423467099 -0.56598465816747978 -0.60201481795772127 -1.1806366722723463 0.29455252424754969 0.070251594805923426 -0.6355595823428658 -1.2165761273065672 -0.96306623320461548 -0.40285531472750408 -0.56583301436084976 -0.062658265567954591 -0.084544893441717159 -0.56368712008033872 0.15878773257427564 -3.5061622362634814 -0.26431421164261282 0.054431481867545574 -0.31482171764270478 0.5256897228170786 0.23170606908290334 -0.29448771740983209 0.038083155944753755 -1.2165761273065672 -1.2598465780829804 -0.16539898592747412 -0.6767361609943755 -0.041148502550988092 -0.21273214336166008 0.16152674022694621 0.039791864050607889 0.070251594805923426 -0.56368712008033872 -0.16539898592747412 0.092852106880818325 -1.0146466693055143 0.34546981069380328 -0.65881576430220112 -2.1404243420465021 0.65128837967485709 -0.80633265433134815 -0.89143693135883917 0.52677083006698178 -0.31482171764270478 0.12686218819550713 -0.35001082679817125 -0.47998590717052853 -0.066898381211782529 0.36455796839797711 -1.0146466693055143 -0.94249519423467099 -0.7753787315173315 -0.41399670599880101 -0.55637352292101394 0.61294540627986538 0.3316715922567951 -0.34050717599973884 -1.6809563648321775 -0.31482171764270478 0.84428529838851374 -0.16793194469656078 0.28256364313020516 0.52677083006698178 -3.5061622362634814 0.067359308264174772 -0.44263946837666968 0.94236748506668644 -2.3141085501216567 1.4095419204225561 0.6691579652581916 0.46817553279688578 -0.084544893441717159 -0.19747524718969159 -0.47712782101193124 0.5256897228170786 0.34546981069380328 -0.73777909012651677 -0.51762467745587626 -0.56598465816747978 0.46415668559341355 -0.72028169372315443 0.59674354793288042 0.1194179226294593 -0.4779567845698659 -0.20487988585091152 -0.23329210492546201 0.13515316234533423 0.30004651605230342 -0.3316618483714337 -1.1970102833967553 0.59674354793288042 -0.503197299121104 0.68023113763447995 -0.66328940447303508 1.6327342137675311 -1.8707868378026229 0.16724365451168019 -0.080900177131841125 -0.99967569243910803 -2.1750389394801624 0.46656164659117699 0.10859902833516025 -0.80633265433134815 0.19347442724650826
decision_type=2 2 2 2 2 2 2 2 2 2 2 2 2 2 2 2 2 2 2 2 2 2 2 2 2 2 2 2 2 2 2 2 2 2 2 2 2 2 2 2 2 2 2 2 2 2 2 2 2 2 2 2 2 2 2 2 2 2 2 2 2 2 2 2 2 2 2 2 2 2 2 2 2 2 2 2 2 2 2 2 2 2 2 2 2 2 2 2 2 2 2 2 2 2 2 2 2 2 2 2 2 2 2 2 2 2 2 2 2 2 2 2 2 2 2 2 2 2 2 2 2 2 2 2 2 2 2 2 2 2 2 2 2 2 2 2 2 2 2 2 2 2 2 2 2 2 2 2 2 2 2 2 2 2 2 2 2 2 2 2 2 2 2 2 2 2 2 2 2 2 2 2 2 2 2 2 2 2 2 2 2 2 2 2 2 2 2 2 2 2 2 2 2 2 2 2 2 2 2 2 2 2 2 2 2 2 2 2 2 2 2 2 2 2 2 2 2 2 2 2 2 2 2 2 2 2 2 2 2 2 2 2 2 2 2 2 2 2 2 2 2 2 2 2 2 2 2 2 2 2 2 2 2 2 2 2 2 2 2 2 2 2 2 2 2 2 2 2 2 2 2 2 2 2 2 2 2 2 2 2 2 2 2 2
left_child=16 2 9 4 5 6 44 12 10 66 64 13 65 -9 19 20 24 -18 117 30 28 29 -11 -14 -1 236 105 67 84 121 41 57 -5 34 35 36 169 158 39 40 -23 163 113 45 106 46 47 98 229 -50 54 52 -52 -54 55 134 -57 71 70 60 62 239 152 161 256 192 119 183 69 78 159 96 -65 114 101 174 80 -43 95 124 81 82 -37 111 86 107 91 88 -87 90 -90 97 168 -63 -95 118 253 -10 99 -30 -66 -25 -77 122 -83 -21 166 108 231 110 -110 -71 129 -20 115 -74 -116 243 -6 218 194 -22 143 -100 -28 147 -72 -73 -32 -36 252 132 -132 -78 -47 189 -122 -42 -94 -123 141 165 -143 162 145 195 -124 148 -40 188 -151 181 -60 -154 155 173 -156 -111 -35 160 -59 -31 -98 -15 -85 -141 -3 -162 185 -8 171 -103 259 -120 -64 176 -146 -178 191 180 -114 -135 211 -27 -185 -67 187 -161 -150 -97 -121 -174 -7 260 -56 210 -24 282 199 -199 262 222 -203 -168 -139 206 -53 208 238 -210 -44 -82 -133 -186 215 -129 217 -217 279 -220 221 -88 -202 -29 -16 226 230 -180 258 -49 -38 232 -86 234 -149 -182 -26 -238 -48 240 -62 -89 -243 -12 251 -218 247 -205 -249 -33 -91 -188 -39 -17 255 -209 278 274 -34 -61 -194 283 -109 -264 265 -177 -267 268 -200 270 -222 -271 -181 -41 -172 -115 -215 -173 -4 -2 -207 -221 -127 -223
right_child=1 3 8 32 68 7 33 11 15 22 18 -13 23 14 224 31 17 -19 42 26 21 38 196 74 25 27 79 223 43 63 128 249 228 37 112 76 225 130 125 273 137 77 144 -45 -46 50 207 48 49 -51 51 205 53 -55 120 56 -58 58 59 172 61 93 75 72 100 92 -68 -69 -70 83 126 127 73 -75 -76 102 133 -79 -80 -81 182 104 -84 164 85 87 220 241 89 250 -92 -93 138 94 -96 135 103 -99 123 -101 -102 170 -104 -105 -106 -107 -108 200 109 157 -112 -113 179 275 116 -117 -118 -119 154 190 136 139 146 -125 -126 197 -128 214 -130 -131 131 212 -134 151 -136 -137 -138 204 -140 140 -142 142 -144 -145 175 -147 -148 233 149 150 -152 -153 153 -155 156 -157 -158 -159 -160 186 167 -163 -164 -165 -166 -167 203 -169 -170 -171 257 277 178 -175 -176 264 177 -179 227 272 235 -183 -184 184 213 -187 244 -189 -190 -191 -192 -193 193 -195 -196 -197 -198 198 267 -201 201 202 -204 246 -206 280 -208 254 209 -211 -212 -213 -214 276 -216 216 245 -219 219 281 269 261 -224 -225 -226 -227 -228 -229 -230 -231 -232 -233 -234 -235 -236 -237 237 -239 -240 -241 -242 242 -244 -245 -246 -247 -248 248 -250 -251 -252 -253 -254 -255 -256 -257 -258 -259 -260 -261 -262 -263 263 -265 -266 266 -268 -269 -270 271 -272 -273 -274 -275 -276 -277 -278 -279 -280 -281 -282 -283 -284 -285
leaf_value=0.45339999286796129 0.41283777916163122 0.15585270774734725 0.44756423472894041 -0.15840412554898251 -0.31022924328771562 -0.45380641373492286 0.012265038209051971 -0.45380641373492286 0.38357446875213719 0.25734144193504771 0.39437938336487344 -0.45380641373492286 -0.45380641373492286 -0.037817201144576901 -0.29550185080413582 -0.45380641373492286 0.44996059666937266 -0.45380641373492286 0.33143165048056167 -0.45380641373492286 -0.45380641373492286 -0.43260050655104798 -0.26004637191551755 -0.13109963063453325 0.45233404066602628 0.36221245866915863 0.38451748217460063 -0.45380641373492286 -0.44287758955093959 -0.45380641373492286 -0.38119738753733518 -0.45340195169059583 0.42314381821229297 -0.097980930238221978 0.12101504366264609 0.28669040105793536 -0.32414743838208776 -0.45380641373492286 -0.45380641373492286 -0.39536164832966764 -0.045380641373492292 0.24107991909072082 -0.36008552394184096 -0.45380641373492286 -0.21703785004713702 -0.02824521247312798 -0.4535058796860918 -0.3145703549753443 -0.44507936731694359 -0.09070081553662683 -0.45380641373492286 -0.42742231991312502 0.24780889559008148 -0.45380641373492286 -0.43692059368897224 -0.43711651060281537 -0.06606433506073027 0.078242485126710851 -0.45380641373492286 -0.36410049474081019 -0.32005294442357718 -0.29772013130380287 0.19691025423555561 -0.45380641373492286 0.21538871577269475 -0.43533083454978605 -0.1334724746279185 -0.22251153189583314 -0.45380641373492286 -0.32485595737308687 -0.21143253367195269 -0.15506237961475422 0.20627564260678311 -0.45380641373492286 -0.25569803007399206 -0.34867751480019171 -0.14739011728142795 -0.19295705780854988 -0.4514428386633868 -0.094186236812908525 -0.45380641373492286 0.20601370528283799 -0.2640143362953733 -0.45325567779592413 -0.45380641373492286 -0.45380641373492286 -0.23530702934403405 -0.45380641373492286 -0.013227001990154084 -0.34857594098479583 -0.45380641373492286 -0.45380641373492286 -0.1446196263550853 0.3132728146428177 -0.15849358330443575 -0.24006823934782609 -0.042214550114876542 -0.23676856368778584 -0.41317200457847475 -0.1813675504935473 -0.30337334840842906 -0.22690320686746143 0.12217864985170999 -0.45380641373492286 -0.21684345877974148 0.099837411021683031 -0.020864662700456223 -0.45380641373492286 -0.082296499900115547 0.20450503623247596 -0.44454505835257752 0.22174631580229187 -0.11727581478542952 -0.17533429621576566 0.29019289550649757 -0.32807649824126456 -0.044545414845145806 -0.075892540180925658 -0.021107275057438271 0.30622709219511057 -0.21721520477649117 -0.45380641373492286 -0.099373667241223984 -0.35702811415977775 0.25614331084522707 -0.41750190063612908 0.26724155475501016 -0.45244974284184386 0.035692639282522025 -0.34287595704416396 -0.21609829225472516 -0.2855411142601762 0.2722838482409537 0.037269125765669993 0.34538849919074333 0.0066410694692915547 -0.39897759136349742 0.39639716862387842 0.26550499724740301 -0.18330219848900806 -0.45380641373492286 -0.4433540587160763 0.015648497025342167 0.078406343734306036 -0.45380641373492286 0.044570272777537064 0.23884548091311728 -0.24635205317038669 -0.20501914123049816 -0.1897100519463924 -0.42165664055479207 -0.077573745937593655 -0.3095192462909987 0.09688002090970263 0.37276955413940088 0.2849482132754167 0.020713155813627183 -0.17110733632628239 0.28362900858432677 -0.44815150515255625 -0.45380641373492286 -0.16997112950798932 -0.36394375754978964 -0.41301482598346911 -0.17413501922386576 0.043985964451848318 0.28653305986676014 -0.13534577251743313 -0.098120305672415767 0.35515284553167875 0.41839646769400485 0.37082466950910842 -0.050422934859435872 -0.35713759187422922 0.40103822609132717 -0.45380641373492286 -0.26785646859475931 0.030941346391017466 -0.45380641373492286 -0.3970806120180575 -0.45380641373492286 0.25549563409122245 -0.14605263890319356 -0.051019655982032751 0.13562030755296547 -0.20374981841159803 -0.31499504012188762 -0.13388158566126077 -0.39592150894892031 -0.45380641373492286 0.079577428000910652 -0.27559932888924538 -0.45132659726642599 -0.10432331350228112 -0.37871190659514004 -0.43125702671703853 -0.45380641373492286 -0.068758547535594378 -0.36436051189731489 -0.43601008378453376 -0.43751824733965144 -0.24108465729667777 -0.45380641373492286 0.44323741428840358 0.20370865683212094 -0.45184612685053871 -0.17836172480128809 -0.40229958087764872 -0.29095554291280051 -0.45380641373492286 -0.13192046910898922 -0.25391549339930208 -0.45380641373492286 0.28592427223761036 -0.45035978274453103 -0.44201923415739242 -0.34162954741842505 -0.22832431254721589 0.23282242095965611 0.449868830969327 -0.4531468113893779 -0.44879197822403977 -0.35522674333557636 -0.28633023723751083 -0.45380641373492286 -0.45380641373492286 -0.24284775653922899 -0.28067795531581935 0.45046022880218639 -0.43658104601972475 -0.45380641373492286 -0.45032674794270622 -0.2743544478473488 -0.45317216298197399 -0.45111320059703014 -0.31215585684656544 0.44087745607865725 0.29363944418142068 -0.40862806348196623 -0.30094530595052776 -0.4336931100790814 -0.28604859254381393 -0.45380641373492286 0.25391549339930208 -0.45380641373492286 -0.44979042777266692 0.45212409153386662 0.21386279267967628 0.41355750786042855 -0.36537234336606611 -0.44747423121769142 -0.42060106638846512 -0.36404250772142166 -0.35412639222089354 -0.45380641373492286 -0.44616514577680438 0.35140906909729924 0.31272669962043909 0.33256042533246255 -0.45380641373492286 -0.36445592812908312 -0.38495302682341737 -0.4497558623850415 -0.42133578240733788 -0.45038404259061726 -0.31133230709721454 -0.43193622512119162 -0.45380641373492286 -0.45380641373492286 -0.43645243997832928 -0.29027257094756326 -0.45265334432308119 -0.45380641373492286 -0.44965257928425995 0.35656218222029651 -0.10197896937863435 0.35582548349670085 0.43824733669258265 0.39968271301424402 0.44874390537183501 -0.40041742388375545 0.40153551791205216 -0.45380641373492286 -0.40575632286887225
leaf_weight=36289.25 72 49.5 181.75 53 44.25 368.5 46.25 122.75 42 82 42 193 69.75 42 43 98.5 59 83.75 44.5 43 215 53.5 44.5 45 1078.75 81.75 1886.25 66.75 436 91.75 75 561 74 44 45 78.75 52.5 462 244.5 66 45 1496.5 46 2287.75 46 60.25 755 44 208 750.5 90.25 43 222.5 50.5 913.75 285.5 183.75 43.5 56.75 43 47.5 78.5 174 50.5 83.75 98.25 42.5 77.5 400.75 45.75 44 79.75 44 45 49.25 64.75 58.5 63.5 96 53 79.25 236.25 334.75 412 91.25 390.5 67.5 366.75 471.75 51.75 74.5 69 45.5 116.25 83.75 73.25 43 46 4087.5 585.5 45.25 42 78 61.5 50.75 50 43.5 1912.75 96.5 58.25 147 44 44.5 44 205.25 57.75 81.5 73.25 43 61.5 333.75 103 68.5 2869.75 388 62.5 45 167.25 44.5 45 42 44.5 55 51.75 73.25 51.25 231.75 83 60.25 127.5 94 130.25 58 47.75 130.5 56 76 43.75 49.25 454.5 91.75 58.5 48.75 44.5 70 43 60.25 45.75 56 80.25 86.75 68.75 101 44.5 43 105.75 73.25 42.75 55.5 46 121.75 43.75 58.5 42.25 86 62.5 51.25 44 43 56 52.5 216.25 43.5 42.25 43.5 49 42.5 65.25 403.75 66.25 52.75 54.75 91.5 43.5 770.5 80.5 160.75 57.75 86.25 51 752.25 112 60.25 171.75 56.25 115.75 50.25 290.75 323.25 166.5 43 42 218 43.25 395 57.75 44.5 119.75 57.5 115.25 344 407.25 133.5 42 77.5 209.5 46.25 43.25 1424 553.25 104.5 391.25 65.75 357.75 84.25 43.25 87.75 46.75 336.5 47.5 180.5 52.75 82 42 269 113 269.75 43.5 112.75 48.75 107.5 102.5 45.5 43.25 1698.25 534.5 48.75 48.25 65.5 97.25 48.25 72.5 784.25 580 331.5 43 62.25 203 91.5 784.5 55.5 9248.75 296 218.5 49 44.5 44 43.75 54.5 1434.25 42.5 47.75 1122.5 42.5
leaf_count=145157 288 198 727 212 177 1474 185 491 168 328 168 772 279 168 172 394 236 335 178 172 860 214 178 180 4315 327 7545 267 1744 367 300 2244 296 176 180 315 210 1848 978 264 180 5986 184 9151 184 241 3020 176 832 3002 361 172 890 202 3655 1142 735 174 227 172 190 314 696 202 335 393 170 310 1603 183 176 319 176 180 197 259 234 254 384 212 317 945 1339 1648 365 1562 270 1467 1887 207 298 276 182 465 335 293 172 184 16350 2342 181 168 312 246 203 200 174 7651 386 233 588 176 178 176 821 231 326 293 172 246 1335 412 274 11479 1552 250 180 669 178 180 168 178 220 207 293 205 927 332 241 510 376 521 232 191 522 224 304 175 197 1818 367 234 195 178 280 172 241 183 224 321 347 275 404 178 172 423 293 171 222 184 487 175 234 169 344 250 205 176 172 224 210 865 174 169 174 196 170 261 1615 265 211 219 366 174 3082 322 643 231 345 204 3009 448 241 687 225 463 201 1163 1293 666 172 168 872 173 1580 231 178 479 230 461 1376 1629 534 168 310 838 185 173 5696 2213 418 1565 263 1431 337 173 351 187 1346 190 722 211 328 168 1076 452 1079 174 451 195 430 410 182 173 6793 2138 195 193 262 389 193 290 3137 2320 1326 172 249 812 366 3138 222 36995 1184 874 196 178 176 175 218 5737 170 191 4490 170
internal_value=-9.97391e-05 -0.264352 -0.342285 0.0355123 -0.018482 0.0244078 -0.109026 0.115983 -0.37206 0.327851 -0.117994 0.198065 -0.160415 0.226468 0.245857 -0.380967 0.445942 -0.0802705 -0.257764 0.26437 -0.391364 -0.326001 -0.220781 0.115555 0.447922 0.327753 0.332679 0.00411616 -0.400809 -0.211858 0.170756 -0.279689 0.42447 -0.218011 -0.171136 -0.108782 -0.304634 -0.331321 -0.368969 -0.201378 0.0806449 0.199548 -0.315172 -0.377292 0.335593 -0.367059 -0.381573 -0.359613 -0.267413 -0.167603 -0.309965 -0.171446 -0.0240489 0.118023 -0.339818 -0.188035 -0.291819 -0.252834 -0.203092 -0.137099 -0.0802644 -0.194957 0.0346871 -0.0785096 0.300893 -0.324826 0.411522 0.13283 -0.300961 -0.246958 -0.319294 -0.327225 0.0056257 0.0591466 0.205251 0.138311 -0.029673 0.223412 -0.137027 0.352213 -0.0937508 -0.0401656 -0.159134 -0.365919 -0.426136 -0.395853 -0.444632 -0.314327 -0.258579 -0.150518 -0.0733152 -0.166203 -0.158134 -0.000814733 0.115721 -0.0758643 -0.206505 0.0593042 -0.377591 -0.292986 0.0334199 0.262942 -0.0913971 -0.129211 0.13124 -0.156148 0.368866 -0.420752 -0.340323 -0.199152 -0.300985 -0.0568838 -0.359109 0.0187664 0.118562 -0.0970053 0.195054 0.137801 0.0326021 0.424103 -0.380483 -0.314969 -0.0698423 -0.390014 0.362616 -0.394681 0.0305937 -0.393887 -0.225954 -0.11093 -0.382883 -0.294122 0.0608194 0.114336 0.176764 -0.248017 -0.291704 0.229674 0.0890448 -0.266708 -0.229324 -0.179262 -0.301935 -0.181641 -0.361899 -0.241493 0.0785132 -0.35659 -0.326285 -0.295082 -0.228669 0.16123 -0.243543 -0.115581 0.0912879 -0.0291922 0.209918 0.0392717 0.115721 -0.361806 -0.241331 -0.332226 -0.267872 -0.230838 -0.426877 -0.0802552 0.392396 -0.348678 -0.287056 0.183244 0.313823 0.199745 -0.322239 -0.187644 0.26443 -0.39935 -0.317112 -0.129829 -0.249082 -0.404485 -0.303347 0.213357 -0.32159 0.240932 0.183621 -0.358268 -0.399058 -0.307216 -0.375167 -0.341575 0.201581 -0.159283 -0.418028 -0.346082 -0.410292 -0.336004 -0.411798 -0.434023 -0.390765 -0.240987 -0.437371 -0.407268 -0.315491 0.409846 0.318561 -0.384337 -0.29321 -0.43258 -0.410758 -0.34632 -0.249848 -0.384566 -0.425281 0.259442 -0.415115 -0.387396 -0.354917 -0.29785 0.438826 0.382803 -0.448598 -0.413408 -0.425115 -0.389126 -0.397316 -0.413676 -0.372311 -0.366991 0.444228 -0.427592 -0.410449 -0.429802 -0.378654 -0.434187 -0.381126 -0.389823 0.44539 0.3897 -0.43967 -0.391212 -0.410018 -0.436161 -0.388135 0.324147 -0.431335 -0.419231 0.424957 0.402615 0.357962 -0.446364 -0.415336 -0.389648 -0.445759 -0.423393 -0.446253 -0.430711 0.42196 0.38128 0.380612 -0.426303 -0.421334 -0.436428 -0.44709 -0.437673 -0.436536 -0.40917 -0.382663 -0.433545 -0.410404 -0.450588 -0.43052 -0.451387 -0.444782 -0.437058 0.400652 -0.138449 0.321175 0.404536 0.436519 0.447028 -0.438034 0.43571 -0.451892 -0.444725
internal_weight=102374 64287.2 51026 13261.2 11644.8 10109.8 4114.5 5995.25 48855.2 2170.75 1654.75 4622.5 1372.75 4429.5 4306.75 47200.5 38086.2 142.75 1240.75 4186.25 42806.2 5404.25 287.25 512.5 37943.5 1654.25 2420.25 441 37402 1478 1766 4394.25 1616.5 3304.5 2337.5 1755.25 505 967 3926.25 522.25 237.75 1646.5 1083.5 19394.2 810 17106.5 13639.2 9534.5 1555.75 958.5 3467.25 614.75 363.25 273 2852.5 602.75 469.25 3784.5 2268 1446.5 1106.75 554 552.75 644.5 414 860.25 1883.5 332.25 1535 1134.25 821.5 1516.5 484 433.5 442.75 402.75 1250.25 1560 589.5 2327.25 865.25 700.5 413.5 544.75 18007.8 6828.25 11179.5 1597.5 1096 705.5 546.25 157 308.5 278.5 200 493.5 539.5 88 7978.75 1021.5 129 393.5 142.75 397.75 287 93 764 5230.75 895.75 347.5 243.5 89.75 582.25 133 388.5 101.75 286.75 157.25 302.75 1841 2249.75 833.5 336.25 6957.25 2274.25 3404 89 977 119.5 90 867 359.5 97 385 133.5 190.75 565.5 184.25 105.75 618.5 515.5 421.5 188.25 191.75 950.5 225.5 144.5 1729.5 1243.75 999.25 546.25 326.5 150 93.25 258.5 128.25 130.25 104 100 732.5 173 160.5 144 86.5 455 233.25 720.5 129.5 202.75 92.25 348.5 129.5 339.75 85.25 260 725 225.75 95.25 199.5 492.25 140.25 268 164.75 254.75 173 147.25 559.5 145.5 453 139.5 114.25 113.25 551.75 183.25 1684.25 169.5 205.25 1674.5 489.5 108.75 4335 1058 172.25 671 139.25 251.5 93.25 4104.75 1581.25 489.75 89 121.25 262.5 130.75 897.25 502.25 335 177.5 1726.75 220.5 11022.5 589.75 885.75 108.75 120.5 412.75 203.25 86.25 1563.5 597.25 157 548.25 157 485.75 128 95.75 1213.25 134.5 1091.5 275.5 228 501.5 134.75 84 414 157.5 597.75 328 156.25 609.75 159.25 145 507.5 141.75 2523.5 825.25 285 219 139.5 140.25 139.75 522.25 3277 1364.25 499.25 167.75 105.25 380.75 177.75 10432.8 399.5 10033.2 352 284.5 170.75 88.5 87.25 87.5 236.25 1506.25 158.25 163 1185 449.75
internal_count=409494 257149 204104 53045 46579 40439 16458 23981 195421 8683 6619 18490 5491 17718 17227 188802 152345 571 4963 16745 171225 21617 1149 2050 151774 6617 9681 1764 149608 5912 7064 17577 6466 13218 9350 7021 2020 3868 15705 2089 951 6586 4334 77577 3240 68426 54557 38138 6223 3834 13869 2459 1453 1092 11410 2411 1877 15138 9072 5786 4427 2216 2211 2578 1656 3441 7534 1329 6140 4537 3286 6066 1936 1734 1771 1611 5001 6240 2358 9309 3461 2802 1654 2179 72031 27313 44718 6390 4384 2822 2185 628 1234 1114 800 1974 2158 352 31915 4086 516 1574 571 1591 1148 372 3056 20923 3583 1390 974 359 2329 532 1554 407 1147 629 1211 7364 8999 3334 1345 27829 9097 13616 356 3908 478 360 3468 1438 388 1540 534 763 2262 737 423 2474 2062 1686 753 767 3802 902 578 6918 4975 3997 2185 1306 600 373 1034 513 521 416 400 2930 692 642 576 346 1820 933 2882 518 811 369 1394 518 1359 341 1040 2900 903 381 798 1969 561 1072 659 1019 692 589 2238 582 1812 558 457 453 2207 733 6737 678 821 6698 1958 435 17340 4232 689 2684 557 1006 373 16419 6325 1959 356 485 1050 523 3589 2009 1340 710 6907 882 44090 2359 3543 435 482 1651 813 345 6254 2389 628 2193 628 1943 512 383 4853 538 4366 1102 912 2006 539 336 1656 630 2391 1312 625 2439 637 580 2030 567 10094 3301 1140 876 558 561 559 2089 13108 5457 1997 671 421 1523 711 41731 1598 40133 1408 1138 683 354 349 350 945 6025 633 652 4740 1799
is_linear=0
shrinkage=0.226903


Tree=1
num_leaves=272
num_cat=0
split_feature=13 13 9 20 9 9 4 26 20 26 22 22 20 4 13 20 13 26 26 20 20 26 4 9 4 4 22 9 9 20 26 22 13 22 20 26 9 13 13 13 9 4 22 9 9 26 20 20 9 26 4 4 26 26 26 4 26 4 22 26 26 22 26 9 22 22 4 26 9 13 4 13 9 22 4 4 22 20 20 26 4 4 4 9 20 9 26 20 22 20 22 13 4 22 26 4 26 22 13 22 20 26 4 20 13 4 26 26 4 22 20 4 22 9 4 13 4 22 4 22 26 20 9 22 22 22 9 20 4 9 20 20 13 9 22 20 26 4 20 9 22 26 22 26 22 22 4 4 26 20 26 4 13 26 20 26 20 26 4 22 20 13 13 20 26 4 4 4 9 20 26 26 26 4 13 20 4 4 13 20 22 20 22 20 20 20 20 20 20 4 13 9 22 22 9 13 4 9 4 20 26 20 9 26 9 4 20 13 4 13 20 20 22 20 26 4 22 4 26 4 9 9 4 22 13 9 9 26 26 22 26 26 20 20 22 22 9 4 9 13 22 22 20 26 22 20 22 9 13 20 20 13 4 22 26 4 9 22 26 4 26 26 4 13 4 20 13 4 20 4 26
split_gain=187753 4710.67 4112.85 1808.04 1683.93 1137.81 1205.3 1405.79 815.99 810.983 796.595 1178.91 990.548 868.448 791.979 752.728 737.31 1673.72 733.242 1023.26 720.054 678.671 567.03 790.74 552.571 535.79 494.193 700.482 950.901 482.425 477.019 476.864 471.763 458.277 421.568 417.67 353.61 340.833 338.51 337.905 326.133 310.573 307.921 298.223 290.89 282.071 277.846 248.993 243.804 493.178 237.454 227.516 225.746 299.877 214.179 212.353 280.04 212.037 196.601 254.794 193.693 205.209 193.131 190.093 282.761 186.666 171.916 168.477 175.495 163.077 671.945 161.895 157.492 211.818 157.142 155.616 150.651 140.678 139.634 145.932 215.514 340.655 207.823 316.73 180.984 155.178 135.858 131.51 130.032 132.21 124.908 122.172 511.759 120.845 135.251 116.883 116.068 154.568 113.416 111.463 117.2 117.615 123.767 109.814 103.105 102.166 101.315 156.384 96.769 96.0702 91.1186 86.4773 84.9977 84.6487 81.7287 79.4951 85.8882 79.231 75.146 69.2286 281.192 68.7851 67.5151 66.4863 63.5124 60.2096 59.9935 58.5084 56.3408 71.6063 91.1361 110.683 53.6086 208.05 142.591 51.3606 47.9133 47.4142 46.8767 46.2188 72.3893 41.4766 55.2793 41.3333 69.1507 69.8664 76.7333 100.914 64.3599 40.4614 40.2575 39.3454 39.1425 47.9918 38.5055 36.6697 35.4112 34.927 34.3281 33.8639 33.5375 33.4226 32.3136 32.241 31.7644 38.6235 30.8532 29.9473 29.8983 28.1974 27.9961 37.6989 25.4954 23.8083 23.5314 56.9053 23.3216 22.7802 55.1827 56.208 86.5527 236.109 23.5832 22.2166 22.1104 21.7268 21.176 21.1732 20.8497 19.4141 17.6281 42.5472 17.3063 16.5745 16.0981 15.357 14.9141 14.3868 14.2244 14.0531 13.539 64.8177 53.3132 13.4513 25.9438 12.8592 12.8572 21.7432 12.7007 12.0699 10.7422 10.1747 9.80413 9.53127 9.48951 9.47519 8.80406 7.92408 7.79317 7.48201 7.32969 7.13588 7.0016 20.3889 6.47272 103.569 6.4041 6.22689 5.94313 12.3865 5.78463 5.72547 5.67222 5.58881 5.13881 4.22082 9.71439 16.9085 4.08176 30.4799 47.2215 4.48231 3.65145 3.60409 3.52387 3.51768 3.44157 3.34608 3.00872 2.98288 2.98221 11.2493 2.90804 2.82986 2.78533 2.78274 2.72869 2.5993 2.55003 2.44406 2.37377 2.26364 2.23899 2.07202 1.95912 1.75885 1.68542 1.66185 1.5888 1.433 1.3021
threshold=-1.9349738206103055 -0.77063401159382716 -1.5931585396625958 -0.66679609307087417 -16.23901784468071 0.42078383964529942 0.70578006702743823 3.1532600506386435 -0.90868138723220204 0.30038988381151061 -0.076786010627453619 1.7329060355784358 0.41895348217369505 -0.47363233160906665 -0.35381079751095207 -2.9831690440808254 -4.0454695839903296 0.24830518246194613 -0.20382150422857073 0.4716397972650353 1.2539410329954461 -1.1873401795883358 0.044796763778553371 0.52681876561121954 -0.13832325682668156 -0.13832325682668156 0.038004708318737104 -0.095148253677363501 0.42078383964529942 7.4118271895920271 0.62182609008197376 0.077169158981376426 1.0593476153362829 -0.48387029441498464 2.1790547524407748 -0.15894716505272327 -1.0944013467140941 0.11431377761470647 -0.2264344696285425 1.0000000180025095e-35 -0.046661140891115858 2.6013262326483826 1.498276775655387 0.52681876561121954 -0.73071880004966139 0.30038988381151061 1.2539410329954461 -1.5436970582626228 -0.35118119360180705 0.11904283245279156 2.6013262326483826 -0.47363233160906665 -0.38351511275188704 -2.0904775986040502 -0.31683687400608168 -0.23521854194122768 0.62182609008197376 0.35542896195020895 -0.40436936406487567 0.62182609008197376 -9.3300947582541358 0.32740012491385312 4.5622872350652797 1.1101540040933771 -4.55167420936663 0.37652951509939708 0.86359742788656446 -0.079552788721716616 1.6124163690518249 -3.1830483874313718 0.088617829506447879 1.3328727798935336 -0.47831649008963772 1.0000000180025095e-35 0.51340842407225218 0.22047132970415087 -0.076786010627453619 0.4716397972650353 3.6381484985678969 -0.91450874173317909 -0.47363233160906665 -1.5437212514319418 0.13139407086745888 -0.095148253677363501 1.7810340892294867 1.0000000180025095e-35 -0.38351511275188704 0.15100818153609177 -0.29376049173468 0.15100818153609177 -2.8446829017258257 -2.3838408043071819 0.31025971547932318 -0.32944643491420655 -0.91450874173317909 -0.53096402669144227 0.44861937044761518 1.0379208098763046 -0.6684647654220387 1.498276775655387 0.90896673152674112 -0.31683687400608168 -0.65004650857635593 -0.29113404286081729 -0.57775473920323517 0.70578006702743823 -0.38351511275188704 0.74103301634424057 0.6424864654831014 -0.48387029441498464 -0.80441889339541983 -0.47363233160906665 1.498276775655387 1.362822888938058 0.86359742788656446 -0.2264344696285425 -0.043973382521846682 0.37652951509939708 0.26507835107293359 -0.62555213943428167 -0.38351511275188704 -0.50358686956367582 0.63724699373210225 0.37652951509939708 2.5198926375334412 -2.8446829017258257 -3.8172279174082417 -0.80441889339541983 0.86359742788656446 -0.55319857926278349 -0.39408841683317214 -0.66679609307087417 -0.57775473920323517 -0.8272456185619923 -0.36625971747604008 0.31599990235149006 4.5622872350652797 -0.090875873580651009 0.04768620143099133 -0.41723261334359152 0.53499147154944238 -0.25521570383176456 0.47807295947530887 0.07705978709986698 -0.14791002844336024 0.59623519404847725 0.35542896195020895 0.13139407086745888 1.0000000180025095e-35 0.52807863644322939 -0.079552788721716616 -0.32777808557189819 -1.1607164786400037 -0.25521570383176456 0.098204372430135953 -0.38351511275188704 0.04768620143099133 0.3659386252379902 0.86359742788656446 0.19830718010463172 -1.5436970582626228 -1.5863113825780191 -0.16752532589881328 0.20430403156557084 0.3659386252379902 0.77914895345122359 0.31025971547932318 1.0750933501971438 -0.35118119360180705 -0.50358686956367582 0.07705978709986698 -0.5099385785749283 0.11904283245279156 0.26507835107293359 -0.2264344696285425 -0.39408841683317214 0.31025971547932318 -0.28204267499860597 1.0000000180025095e-35 -0.34032433392659295 0.72637419491384725 0.58303199189256949 -0.44267964676126953 -0.19093516795691137 0.41895348217369505 -0.13979567485961583 0.4716397972650353 1.9746376366289986 0.58303199189256949 0.35542896195020895 -1.3428212400810449 -0.94508957723415599 1.498276775655387 0.28401995861228357 0.28923402047681751 -1.1607164786400037 -0.32777808557189819 0.22917759845116523 0.77914895345122359 0.41895348217369505 0.91561396489882962 -2.9831690440808254 -0.47831649008963772 -0.91450874173317909 1.1101540040933771 0.26507835107293359 0.90896673152674112 -2.3838408043071819 1.0000000180025095e-35 -4.411852407017407 -0.091498379518761858 1.0651930169520922 0.11583214890679056 0.64192708270696797 9.7916963253990819 1.5967541061322472 0.82332903595354712 0.044796763778553371 -2.0904775986040502 -0.83625603203970789 -0.095148253677363501 -1.300304078311719 0.22047132970415087 0.32740012491385312 -4.0454695839903296 -2.3050944244091371 -0.18949175548537125 1.6358488607904522 -7.3716322714691991 3.1583856639306553 -0.73657466641233693 2.3810573834228927 0.83918088655795053 0.15100818153609177 -0.29376049173468 -0.36625971747604008 -0.095148253677363501 0.40223240144379452 -0.73071880004966139 -0.42298379102307243 -0.57641023672808356 -1.9072507443826963 0.98160690564824926 0.44861937044761518 -0.95411034064209743 -1.1052759201132345 1.2961298873782983 -0.73071880004966139 0.11431377761470647 -2.9831690440808254 -0.73053252871553398 0.28825197138435371 0.35542896195020895 -0.14791002844336024 -0.38351511275188704 0.35542896195020895 0.42078383964529942 0.47807295947530887 -0.11871697365487617 1.5967541061322472 1.0000000180025095e-35 -0.73657466641233693 -1.5437212514319418 -0.16752532589881328 -0.32777808557189819 -0.80441889339541983 0.056764325316416751 0.31025971547932318 -0.29113404286081729 0.35542896195020895 0.53951988786298155
decision_type=2 2 2 2 2 2 2 2 2 2 2 2 2 2 2 2 2 2 2 2 2 2 2 2 2 2 2 2 2 2 2 2 2 2 2 2 2 2 2 2 2 2 2 2 2 2 2 2 2 2 2 2 2 2 2 2 2 2 2 2 2 2 2 2 2 2 2 2 2 2 2 2 2 2 2 2 2 2 2 2 2 2 2 2 2 2 2 2 2 2 2 2 2 2 2 2 2 2 2 2 2 2 2 2 2 2 2 2 2 2 2 2 2 2 2 2 2 2 2 2 2 2 2 2 2 2 2 2 2 2 2 2 2 2 2 2 2 2 2 2 2 2 2 2 2 2 2 2 2 2 2 2 2 2 2 2 2 2 2 2 2 2 2 2 2 2 2 2 2 2 2 2 2 2 2 2 2 2 2 2 2 2 2 2 2 2 2 2 2 2 2 2 2 2 2 2 2 2 2 2 2 2 2 2 2 2 2 2 2 2 2 2 2 2 2 2 2 2 2 2 2 2 2 2 2 2 2 2 2 2 2 2 2 2 2 2 2 2 2 2 2 2 2 2 2 2 2 2 2 2 2 2 2 2 2 2 2 2 2 2 2 2 2 2 2 2 2 2 2 2 2
left_child=2 5 69 44 -3 6 9 128 14 10 12 35 13 -2 24 227 169 18 19 93 22 255 99 39 160 111 27 162 33 231 31 37 96 -29 55 77 -23 38 135 40 98 43 50 71 -4 67 152 194 49 91 60 -37 53 -40 163 -17 72 206 104 66 61 -7 95 64 -43 149 -60 68 86 224 219 78 109 -74 -36 88 -54 185 79 80 81 221 90 193 -85 -83 -26 155 121 -90 -81 92 -27 94 -18 -44 97 113 105 132 110 102 -102 172 -56 106 210 -108 -96 -57 -101 -20 197 -33 252 116 -28 -113 -118 120 -77 -38 -30 -61 -82 -48 -13 176 129 247 131 -131 133 134 196 -25 -9 -79 -121 -58 199 142 167 144 235 146 147 -146 -148 150 -53 -135 153 -14 205 -34 -51 -72 -137 217 -6 -105 -16 -42 165 -129 -75 213 190 -5 171 -153 -67 -152 175 -112 -100 238 179 -179 182 -182 -181 -173 -99 -12 256 -65 -165 195 211 -192 -130 -84 -35 -187 -10 -47 -143 -141 212 202 -202 204 -39 -93 207 230 -92 244 -24 -128 -117 245 -46 249 -144 -69 -176 262 -211 -22 223 -32 -1 -226 -172 -11 264 -230 -21 -19 -138 -132 -207 -41 237 -237 239 240 -134 -241 -166 -196 -171 -62 -240 -8 -164 -214 251 -180 -80 -95 -177 -15 -50 -157 -162 -45 -66 -154 -71 -251 -208 -97 -252 -111 -145 -219 -107
right_child=1 4 3 16 8 42 7 136 20 15 11 126 46 21 26 34 17 29 25 57 41 36 23 30 45 48 115 28 122 -31 222 32 87 47 74 51 75 203 52 143 54 63 62 259 214 112 125 -49 186 156 -52 65 76 -55 58 56 139 -59 59 123 141 -63 -64 187 260 103 -68 159 -70 70 157 -73 73 166 -76 119 -78 137 114 82 124 85 83 84 -86 -87 -88 -89 89 -91 208 154 -94 253 108 265 -98 184 127 100 101 -103 -104 161 -106 270 107 -109 -110 267 174 117 -114 -115 -116 200 118 -119 -120 138 -122 -123 -124 -125 -126 -127 168 164 192 130 233 -133 177 151 -136 158 232 -139 -140 140 -142 198 216 268 145 -147 148 -149 -150 -151 173 170 261 -155 -156 257 -158 -159 -160 -161 258 -163 248 188 242 -167 -168 -169 -170 209 226 183 -174 -175 218 254 -178 178 250 180 181 -183 -184 -185 -186 189 -188 -189 -190 -191 191 -193 -194 -195 243 -197 -198 -199 -200 -201 201 -203 -204 -205 -206 234 228 -209 -210 220 -212 -213 215 -215 -216 -217 -218 269 -220 -221 -222 -223 -224 -225 225 -227 -228 -229 229 -231 -232 -233 -234 -235 -236 236 -238 -239 246 241 -242 -243 -244 -245 -246 -247 -248 -249 -250 263 266 -253 -254 -255 -256 -257 -258 -259 -260 -261 -262 -263 -264 -265 -266 -267 -268 -269 -270 -271 -272
leaf_value=0.37191345823406963 -0.38844828259765796 0.3710920117693785 0.14658509079860294 0.18044200389888032 -0.17835046835085536 -0.32083665773986975 -0.38538955488757087 0.14515851388477383 0.027292001764472811 0.27954139495466934 -0.38414320713548472 0.3701934051906498 -0.09791425744845382 -0.38724504657051179 -0.17333272494642257 -0.38153361815841569 -0.3889259708940811 -0.39827890641870572 -0.38405255245280401 0.26861552585756887 -0.26752246866942087 -0.42160581958918425 -0.38211518679070627 -0.37616219014092894 -0.33026315067262924 0.38696958550432936 -0.35902947674984587 -0.39131185048647393 -0.079542436871111871 0.39332328246194703 -0.38081388826810747 -0.056120516914921627 0.1183248769585372 0.37429504193051305 -0.14246074783436574 -0.38330141582877097 0.36432757614512667 -0.38303434861898084 -0.39001480385538961 -0.37983115106935716 -0.37621363712137673 0.28762636981351863 0.044246961215931156 -0.3841835187380781 -0.38464160325086288 -0.17670384943421247 0.31776643969640611 -0.064971284766578638 0.38104206622591358 -0.12935378090533103 0.2117753254178687 -0.026005950157933999 -0.35337030123653079 0.21740526113992109 0.012116221770018422 0.030168057063496425 -0.38074366212363914 -0.20598048322686807 0.075978260138401713 -0.3481064733005001 -0.31329741598258282 0.30500627701643046 0.26500013926659982 0.32887874089555974 -0.40951425151354026 -0.39608722003944663 -0.30619257806293765 0.46169159988172997 0.34153665396026861 0.36902392974047399 -0.41230711578343732 -0.38633368069650659 -0.26011448116242158 0.12635674224351698 0.39960551641943537 0.31706425727225229 0.092216728625278216 0.036446389223586721 -0.38520325259852189 0.046717742318474455 -0.38092973177363793 0.17014386391790992 -0.26273243559638931 -0.16035226566526853 0.18320285007540041 -0.29946898886974077 0.17762816792002153 -0.12127450074215518 -0.10460404023835575 0.29156610795300536 -0.37351762063406263 0.26201472726511593 -0.41495697647400637 -0.4757615341396762 0.19972611591091335 -0.32048470868557483 0.13824550408619263 -0.38423284642552741 -0.039390364762397261 -0.027625210676457113 -0.23252843286867042 -0.3862555332574677 0.29342662173135509 0.095427944392186742 -0.3743280068699481 -0.3862804181287639 0.022074453530748352 -0.37830641095236611 -0.23984492482645484 -0.3376530813510461 -0.048236259800794788 -0.21727539899000728 0.089034022084352779 -0.20098131211783207 -0.063781624325603775 -0.28265586045479457 0.17716779403186603 0.19973611613161163 -0.24254458701294102 0.32456061341976433 -0.2827089047247735 0.16308246173493302 -0.3863887684562205 -0.10256281056617436 -0.052691858012056128 -0.042972054635478513 0.20622933934499996 -0.30477736811519751 -0.38051512109433322 -0.26756377837427753 -0.39876457460444015 0.15603859607335471 -0.06304559958833067 -0.37970772103099487 -0.37428170830559349 -0.28601588020957602 0.35524734896970706 -0.26100357572120686 0.15589262932844231 -0.37437327419473876 -0.0043585376411490705 -0.37989286435564473 -0.081339622524732105 -0.37168405406047506 -0.37563126520698042 -0.37641530501535181 -0.35937278497696284 -0.19985276239492628 -0.13841931146416525 -0.078207428905061466 0.087429623022973441 -0.36780606038207542 -0.33062948882490117 -0.36515679978278143 0.16671643813059769 0.30647781591461437 -0.39435208593383669 -0.13915171900391832 -0.053461614706646253 0.16480853741979715 -0.3199531919160426 -0.15238825094764483 -0.33230504605884603 -0.16773357111563794 -0.37854993288372901 -0.38110859851687623 0.36422490385119244 -0.19118496707005864 0.01226180403372789 0.31686835665026225 -0.28856469944795837 -0.27817477382871025 -0.18185838570566451 0.24444671795036649 -0.28258930238285052 -0.31169104602417214 -0.27673343334906342 -0.3811273757442889 -0.24205471773881831 -0.28450195262108896 -0.34496128079589689 0.19794790688439559 -0.34890094299752866 -0.071998261643140382 -0.19712515145252085 -0.41082337829667831 0.23690560489359255 0.12897896781757434 -0.35869102254603602 -0.1589551496305997 -0.013114750255855318 0.28831873332230995 -0.26978468601965849 -0.38301809538112391 0.45013947332549514 -0.25456307848504178 0.21551059633332351 -0.33395020412697823 -0.27852727211672645 -0.21502288939199851 -0.33707678880690883 -0.38128843191775574 0.020721452753520764 -0.37846568218761223 -0.21111690417550469 0.29945174765625471 0.35446118006671234 0.12809217378790924 -0.25209469283360308 0.22282038195557302 -0.23894475213408425 0.35653935016836413 -0.40792358013417163 -0.27432752603832078 -0.26950665320403 -0.29932860431844427 -0.21405027257306272 0.37464517506175632 -0.38718981773438765 0.2880656662051902 0.3478845833270981 -0.38674829279748113 -0.382068382558301 -0.19014714138997968 0.37083875866253191 0.038147127282313745 -0.38586507920627905 0.38829065906943011 0.24183336583503706 0.38878031112179318 0.38256958735733815 -0.30920923606873618 0.45150381643577153 -0.2938103001275949 0.38125965866184103 -0.25370476280604215 -0.37894897363266455 -0.38107528143369468 -0.38000847002069993 -0.30230885894496451 -0.38381902799404294 -0.37808079333599887 -0.32010332638587979 0.52225172821491583 0.37984096579640098 -0.38291237755418356 -0.3487803384196127 -0.32660787438154743 -0.38659478069060926 -0.33046611784926888 -0.35997856345542295 -0.37688285834080987 -0.31948278132418151 -0.40946657820525278 -0.38551151740321554 -0.31341674588894647 0.40971593823505115 0.3698801875714518 -0.38356382804570816 -0.32770051261014627 -0.33907503577473663 -0.38188379919215382 0.41486766061552877 -0.37870554695950909 0.42012751826707573 -0.3847642916148078 -0.37781739974249867 -0.40195252425079819 -0.3816557972683059 0.32532176858530748 -0.34312237305527099
leaf_weight=38176.832059547305 148.72922810912132 182.46105194091797 65.399219274520874 43.389304116368294 68.147181272506714 59.714204862713814 156.75808495283127 50.104809522628784 45.840672433376312 41.52765066921711 509.79664714634418 128.63559801876545 77.594748124480247 71.455139771103859 43.543254479765892 576.65114548802376 75.650572657585144 313.16118538379669 51.572859928011894 49.221191957592964 41.503644496202469 44.234217062592506 80.791967242956161 244.82095775008202 68.158303916454315 123.87094047665596 88.598062857985497 48.900821670889854 45.262761786580086 45.986170396208763 101.37956167757511 495.99152900278568 47.016922682523727 78.721253082156181 46.73609870672226 106.78896321356297 113.9635299295187 104.51721321046352 51.410929203033447 1816.1485129445791 274.32260021567345 49.6930792927742 66.172573879361153 610.05546346306801 334.19675952196121 73.372795820236206 43.602201640605927 57.925913646817207 717.39909553527832 59.748307257890701 42.332031607627869 67.551779702305794 129.70032793283463 224.89899000525475 42.820835128426552 49.550623223185539 245.71857044100761 45.780975416302681 412.29729461669922 162.65513557195663 43.315901473164558 49.19776226580143 72.681827008724213 60.944863185286522 51.742637261748314 81.802798330783844 71.043492123484612 49.219005033373833 64.157580032944679 314.68818856775761 54.823596701025963 229.13092949986458 55.213559493422508 44.480402812361717 67.014777526259422 156.53125363588333 55.902684524655342 66.093332707881927 221.38305671513081 42.946994662284851 120.23763406276703 311.70370502769947 138.82317100465298 142.11403849720955 177.60877081751823 40.991073504090309 45.031252637505531 49.460158705711365 163.22525483369827 59.062510639429092 376.92587772011757 62.678215578198433 61.220001637935638 47.313351780176163 59.439381971955299 41.017672315239906 72.860653087496758 148.14994876086712 43.480462610721588 49.856758043169975 41.945546761155128 46.302430719137192 51.09457303583622 63.735841006040573 209.21949405968189 121.67915073037148 191.24212169647217 68.114640161395073 45.5392996519804 42.076731562614441 42.3069187104702 49.194419667124748 59.485138982534409 357.28605023026466 52.095013931393623 60.509216904640198 41.945883244276047 44.837206572294235 46.100473567843437 820.43725226819515 54.172918170690536 375.75746025145054 200.25184555351734 87.21853606402874 40.597931548953056 52.507332980632782 42.917273700237274 1195.9109385609627 965.38358776271343 64.443161740899086 50.826031565666199 62.612525805830956 42.179496586322784 863.18582281470299 46.989957898855209 94.436313986778259 58.378943219780922 47.361770480871201 94.618357315659523 85.463328287005424 52.23666450381279 1128.2548149526119 51.020376846194267 1220.4378941357136 229.7760206758976 804.62484550476074 839.94381509721279 626.97316870093346 73.839311316609383 61.54558689892292 87.853018790483475 62.731447592377663 59.559664592146873 62.434205234050751 61.421411082148552 50.471740499138832 45.911312878131866 43.005361005663872 49.973604336380959 45.535347461700439 43.87257993221283 50.001262843608856 61.555764451622963 80.200401335954666 1088.0858951061964 477.59029275178909 76.115364208817482 65.32654182612896 45.475082144141197 48.534189477562904 50.070085912942886 42.984164401888847 43.977572754025459 114.53802923858166 40.799355357885361 42.575252637267113 41.812466591596603 782.26213189959526 40.834034264087677 447.82883834838867 121.15597303211689 62.526028797030449 845.55316895246506 71.945445328950882 41.659174546599388 66.602494090795517 50.397495031356812 49.385968074202538 46.509706273674965 43.030270680785179 44.739840239286423 52.279840931296349 78.584750443696976 102.5435094088316 52.511558547616005 63.020398661494255 41.114903420209885 50.624483227729797 76.080670937895775 42.744662761688232 41.252998873591423 236.19349044561386 44.643757924437523 625.7721214145422 79.621897116303444 44.341497123241425 42.454459011554718 44.171740859746933 50.266006007790565 43.642786994576454 40.510781511664391 50.432419568300247 182.54347857832909 59.465655371546745 41.424626484513283 77.451097652316093 51.934486672282219 73.175979420542717 362.45250272750854 55.818688809871674 53.954082638025284 68.507748439908028 662.60563607513905 40.374991253018379 893.23476451635361 50.922151193022728 114.3938335776329 78.070422515273094 59.875376865267754 58.278683111071587 42.945739611983299 42.158343866467476 68.506031647324562 53.741800859570503 364.50463911890984 104.42646968364716 401.07900337874889 110.37783350050449 9167.0487642586231 41.59561151266098 53.72086726129055 1193.2524669766426 57.9654820561409 111.34290550649166 797.73863416910172 272.28526046872139 185.37046648561954 73.111523866653442 359.49656358361244 48.201720952987671 292.48096491396427 144.97198481857777 41.099478557705879 110.74090437591076 68.902381166815758 41.58064278960228 224.28936497867107 97.798999115824699 124.58348201215267 42.168136045336723 47.010187923908234 173.8823956400156 66.427701681852341 936.69163630902767 52.0940260887146 47.06147737801075 4028.2266522496939 40.723848134279251 2523.8260365277529 51.789627239108086 51.10926465690136
leaf_count=160542 619 768 273 180 282 249 654 207 189 171 2121 541 321 298 181 2406 314 1302 215 206 172 183 336 1018 284 509 370 203 188 187 423 2055 194 321 193 445 462 436 214 7592 1146 203 273 2542 1395 303 177 239 2962 248 173 277 541 924 178 205 1022 190 1700 679 180 202 300 250 213 338 297 198 263 1320 227 955 229 183 272 642 230 272 922 176 502 1274 580 590 730 170 184 205 669 241 1573 257 254 195 244 171 299 618 181 205 174 193 208 263 874 506 789 285 188 173 174 204 246 1487 215 252 172 184 192 3345 225 1531 834 361 168 217 177 4971 4020 267 211 259 175 3601 196 394 239 197 386 356 216 4707 211 5114 963 3372 3513 2609 305 254 360 262 248 260 252 206 190 179 206 188 183 207 256 332 4547 1995 313 271 188 204 209 179 182 468 169 177 174 3261 170 1864 507 255 3531 296 173 276 206 202 194 179 184 215 325 428 212 261 169 211 317 177 171 986 183 2615 332 182 178 183 210 181 168 206 755 248 174 323 216 302 1508 233 222 285 2759 168 3755 210 476 317 250 240 176 175 278 223 1484 435 1678 461 38280 174 224 4995 242 456 3318 1136 774 305 1497 201 1222 607 171 460 287 173 910 399 519 175 194 725 274 3916 215 196 16850 169 10531 214 213
internal_value=-0.000145011 -0.285052 0.346369 0.14141 -0.31679 -0.142841 -0.102168 -0.271879 -0.319659 -0.0545472 -0.00539579 -0.119844 0.075105 0.140485 -0.217418 -0.196227 0.188548 0.134104 0.198481 0.00494014 -0.329052 0.179917 -0.337875 -0.308114 -0.0203871 0.27086 -0.273642 -0.15064 0.0124003 -0.298211 -0.21699 -0.175654 -0.0760635 0.252868 -0.242124 -0.210213 0.21235 -0.257237 -0.156975 -0.333758 -0.28568 -0.224186 -0.289746 -0.245791 -0.295051 0.09873 -0.223374 0.357695 0.304443 0.213196 -0.319599 -0.0793148 -0.0256193 0.104387 -0.192695 -0.278481 -0.197555 0.253156 -0.135794 -0.0763679 -0.331715 -0.0381306 -0.0399433 0.0138225 -0.153836 -0.0224636 0.0198052 0.206244 0.0417306 0.369753 0.245299 -0.205818 -0.0327747 0.107967 0.17689 0.227609 -0.219162 -0.321687 -0.184815 -0.158471 -0.0718168 0.00683048 -0.210868 -0.117627 0.0304956 0.115564 -0.128204 0.209225 0.144585 0.000659529 -0.322147 0.280546 0.121727 -0.284418 -0.157634 -0.18363 -0.138633 -0.157973 -0.322954 -0.364418 -0.278416 -0.0907519 0.0563088 -0.175086 -0.308672 -0.228815 -0.163133 -0.0830772 0.00904209 -0.21973 -0.321504 -0.147934 -0.133937 -0.116777 -0.323388 -0.345877 -0.201304 -0.0184313 -0.0425908 0.280119 0.16286 0.209914 -0.329819 -0.262399 -0.298076 0.120685 0.245545 -0.34089 -0.342995 -0.276975 -0.187935 -0.0588143 -0.367834 -0.324085 -0.0558115 -0.312859 0.33303 -0.0877239 0.30712 -0.316709 -0.22951 -0.350011 -0.29797 -0.360373 -0.346888 -0.320975 -0.295779 -0.246996 -0.341518 0.087814 0.125666 -0.353898 -0.311914 -0.217069 0.335703 0.29293 -0.244501 -0.292229 -0.20554 0.339031 -0.312663 -0.0135174 -0.359414 -0.332489 -0.346491 -0.326561 0.27649 -0.332963 0.177558 0.359294 -0.288781 -0.22633 -0.321185 0.176289 -0.347807 -0.272288 -0.155741 -0.371192 -0.36089 -0.331949 -0.305904 -0.160153 -0.326603 -0.149109 -0.343167 -0.360582 0.380203 0.2394 -0.237826 -0.291014 0.217044 0.149315 -0.37218 -0.313835 0.458626 -0.334852 0.116287 -0.240903 -0.373489 -0.321246 -0.361568 -0.319905 -0.151116 -0.362603 -0.308697 0.357716 0.313377 0.258983 -0.35923 0.367516 -0.334301 0.287435 -0.371848 -0.357657 -0.371944 -0.376184 -0.148284 0.384577 -0.376607 0.365651 0.291959 -0.341768 -0.372277 -0.326508 0.371454 0.352895 -0.356243 0.35053 0.348242 0.314314 0.321713 -0.387711 0.407217 -0.344824 0.372387 -0.374327 -0.358094 -0.319154 -0.377716 -0.365959 -0.242734 -0.375528 -0.375594 0.499141 0.376229 -0.373358 -0.37939 -0.366694 -0.378658 -0.381282 -0.375399 -0.347252 -0.374913 -0.429312 -0.357318 -0.360087 0.387872 0.348298 -0.366997 -0.380532 -0.375982 -0.368807 0.377014 -0.376345 0.390642 -0.35483 -0.37661 -0.369278 -0.378406 0.354204 -0.373515
internal_weight=97913.8 53733.5 44180.2 4524.48 43929.4 9804.16 7678.3 1682.45 43746.9 5995.85 4451.53 1838.18 2613.35 2143.77 3680.8 1544.32 4083.46 3096.2 2694.89 733.506 40066.1 1995.04 36956.6 17422.1 817.153 1961.39 2863.64 1059.51 594.917 401.306 3826.11 3021.75 1360.7 349.402 1424.73 1473.7 1882 1661.06 851.144 13596 4844.58 3109.48 2125.86 2850.7 441.021 580.55 469.581 300.502 1815.78 823.696 1898.93 677.795 461.913 276.31 1386.29 1310.97 734.324 394.822 985.255 733.214 1856.6 108.912 226.934 258.777 148.446 571.006 483.341 397.067 177.347 39655.8 534.764 2198.48 308.161 175.809 113.751 1837.77 185.603 795.905 1969.35 1654.77 623.542 462.706 1031.23 561.089 319.723 352.695 113.19 244.748 712.009 222.288 470.139 718.037 185.091 338.684 180.629 154.252 1115.95 1043.09 3458.29 19534.5 746.236 139.343 93.0401 239.517 252.04 553.448 380.66 259.357 104.979 132.351 606.893 145.604 183.482 853.278 314.578 1804.13 176.644 94.0316 88.0464 1125.76 210.704 489.721 245.515 249.874 160.836 96.1095 364.48 2904.85 1505.46 461.493 231.624 127.056 18788.3 1339.26 133.946 389.231 176.99 113.455 915.056 426.163 180.445 1747.68 543.348 8751.45 5007.19 2575.16 1770.53 856.749 913.783 331.488 269.943 1205.31 373.471 140.029 532.946 195.288 105.66 97.829 144.41 219.72 236.603 113.737 464.596 401.033 2819.55 1673.5 120.596 440.393 235.844 987.259 342.125 177.661 125.78 202.391 557.036 153.785 85.2929 17449 6765.84 2259.33 1477.06 183.682 1293.38 114.93 189.809 682.45 992.086 110.331 126.71 172.653 190.369 97.0197 1043.97 241.367 242.576 129.623 86.9556 123.997 1204.34 128.208 1627.49 322.09 85.8968 809.911 184.139 471.524 349.041 136.339 427.192 943.87 121.303 93.3497 1305.4 375.067 375.621 1244.89 102.955 174.185 403.252 436.935 97.5969 110.011 804.36 141.755 39121 944.157 164.464 119.598 212.703 118.154 92.1669 355.32 126.885 104.568 408.846 2432.03 615.883 214.804 10683.2 1330.75 95.9004 1234.85 1146.05 163.854 846.273 315.601 9352.42 229.87 421.052 1167.44 4506.51 185.806 262.483 158.054 111.478 113.036 941.688 148.271 168.456 652.224 98.7528 233.442 381.116 984.893 94.5485 88.0791 4320.71 82.8006 3744.26 124.966 172.788
internal_count=409171 223724 185447 18707 183151 40573 31723 6988 182383 24735 18333 7611 10722 8774 15285 6402 16865 12760 11096 3039 167098 8155 154198 72637 3377 8057 11908 4387 2453 1664 15896 12546 5636 1431 5914 6100 7684 6910 3527 56741 20168 12900 8850 11838 1842 2393 1948 1228 7454 3376 7910 2794 1909 1138 5761 5449 3043 1638 4089 3037 7737 451 940 1062 610 2349 1997 1633 731 166740 2233 9121 1272 725 465 7501 771 3306 8166 6858 2571 1901 4287 2328 1320 1444 468 1004 2903 910 1959 2938 763 1401 746 640 4632 4333 14407 81561 3095 575 382 990 1052 2297 1578 1074 432 547 2520 603 760 3542 1308 7521 734 388 364 4598 867 1993 1022 1040 670 394 1511 12110 6264 1919 960 526 78466 5577 554 1618 724 469 3731 1771 749 7286 2262 36573 20928 10762 7390 3572 3818 1359 1105 5023 1554 581 2175 799 438 406 600 902 984 470 1934 1672 11755 6966 496 1835 970 4105 1422 737 520 828 2315 638 355 72889 28267 9418 6157 762 5395 475 791 2837 4078 452 526 716 782 399 4345 1008 989 537 358 514 5024 533 6787 1340 354 3383 768 1923 1448 565 1783 3925 504 383 5447 1564 1569 5195 427 714 1677 1827 403 457 3350 591 164507 3965 685 488 883 490 382 1477 517 434 1666 10166 2574 896 44622 5568 399 5169 4789 668 3522 1316 39054 959 1753 4872 18849 777 1093 655 464 471 3872 605 702 2717 407 973 1594 4117 393 367 18072 342 15645 516 719
is_linear=0
shrinkage=0.226903


Tree=2
num_leaves=472
num_cat=0
split_feature=3 3 4 3 3 7 3 24 7 4 4 21 3 21 4 24 24 7 21 21 7 4 21 3 12 7 12 21 7 4 7 12 7 24 12 12 24 24 24 7 4 24 24 21 7 4 7 24 4 4 24 4 12 12 4 7 21 24 21 7 21 21 21 21 3 24 12 4 3 4 24 7 12 12 24 3 21 7 7 12 4 12 12 24 7 24 12 7 24 12 3 21 4 21 12 7 12 7 24 4 24 12 7 4 4 21 7 12 4 24 24 7 21 12 12 7 24 24 4 12 7 3 12 24 12 4 4 24 7 12 7 3 24 12 12 7 12 21 12 21 21 4 4 7 24 4 21 21 4 24 3 7 7 21 4 21 4 3 24 3 21 12 12 7 7 7 4 12 7 4 7 3 4 12 12 24 24 4 24 12 24 7 12 7 3 4 4 21 7 7 21 21 21 7 7 4 12 24 24 12 3 4 3 4 21 7 3 24 24 7 21 4 4 12 24 7 3 24 4 24 7 21 4 12 3 7 12 3 4 21 7 3 3 7 24 21 4 21 7 24 21 7 7 12 7 4 4 12 12 7 7 24 7 7 21 4 7 12 12 24 24 12 24 4 3 24 4 24 21 7 21 21 24 12 24 12 21 24 12 21 12 21 7 7 4 12 3 24 4 24 24 24 24 7 12 7 3 3 7 12 7 7 3 24 12 12 21 4 21 7 12 21 7 7 21 7 7 7 12 12 24 7 12 24 12 12 4 21 7 4 3 4 7 24 21 7 7 21 4 24 21 4 24 12 4 4 12 7 7 7 7 24 21 4 7 21 3 21 12 24 24 7 7 7 21 4 24 24 4 24 24 12 3 12 7 24 21 3 4 4 7 7 12 24 3 7 12 12 7 12 4 7 12 12 4 4 21 7 24 7 12 3 24 4 21 21 7 21 7 7 12 7 7 7 12 24 12 12 7 4 12 7 4 3 7 4 3 7 7 24 4 21 24 21 12 7 21 12 7 7 24 21 4 3 21 12 21 7 21 4 12 12 24 21 4 24 3 3 7 12 3 21 21 21 12 4 12 7 12 21 3
split_gain=108986 4656.55 2282.27 2034.86 1343.56 1072.63 834.053 739.882 625.836 540.795 536.101 900.74 514.529 502.7 1083.46 667.627 846.901 477.648 430.888 682.903 606.511 801.928 899.479 427.923 425.238 423.128 372.567 331.465 310.439 591.207 501.687 299.902 392.948 369.942 295.257 286.155 296.237 283.255 276.154 256.973 634.673 287.714 256.078 252.642 248.985 372.79 241.269 237.513 226.409 215.975 225.648 211.672 208.341 203.953 201.834 583.966 199.077 196.836 193.375 190.095 229.165 189.223 183.266 181.137 175.013 229.529 170.587 170.406 165.011 163.704 200.987 200.946 170.833 162.505 162.339 157.316 145.116 144.66 147.462 144.327 140.011 142.146 134.051 131.438 131.258 160.527 130.214 126.326 125.116 125.109 118.217 155.569 117.632 116.036 211.914 192.086 112.896 111.918 111.611 107.276 110.596 104.725 178.251 104.623 156.428 118.727 104.579 102.447 102.211 100.974 101.683 97.0411 95.1599 95.0085 94.2862 93.484 93.2468 92.4043 91.9758 89.7832 88.6985 87.7033 86.6145 85.689 99.5859 83.5316 79.5584 122.709 94.9121 79.1359 77.2649 76.3127 74.9051 74.1828 74.0004 73.3363 141.46 97.8543 71.7822 157.02 67.4295 66.6185 66.3983 169.287 158.021 66.0321 65.3346 63.8779 61.5612 61.1157 60.6921 60.3806 60.3691 60.3657 59.4653 64.7521 58.9791 62.3273 58.935 57.7988 58.1603 87.5372 228.234 213.451 134.944 69.9921 55.7144 55.3546 54.5092 166.54 54.3099 81.1774 53.0775 52.7944 65.2745 51.897 49.4608 49.3061 49.0583 94.6154 47.4111 47.3469 46.9517 45.5361 45.4783 45.3936 45.3013 94.8384 44.7754 43.4617 42.5625 41.3549 41.057 40.3896 38.5505 67.5671 91.259 92.6678 96.1 41.2214 38.2838 38.0544 36.7852 36.6105 61.7389 123.941 36.2136 36.0977 35.9306 35.8941 35.7645 78.1269 35.0723 34.1545 33.912 46.6984 33.0696 32.8616 32.5924 32.2458 31.8109 31.6445 50.1555 51.7816 53.7404 31.5861 31.553 31.2963 31.2734 31.1512 158.092 30.3792 30.239 29.1067 28.8362 77.0241 28.4916 27.259 26.7347 26.3971 25.8676 52.4081 25.8556 72.8733 25.842 25.6358 25.4486 25.4342 25.2575 24.6631 28.5989 24.5094 37.6747 40.8529 38.06 24.4346 24.3167 23.7631 23.6169 23.5722 23.3559 23.2189 22.5562 22.4092 21.9314 21.7733 21.0144 30.7377 66.5587 26.1303 41.6531 20.9251 20.7477 36.7326 62.9716 33.9362 20.3144 21.9473 20.1744 20.0961 19.9373 23.0883 19.8731 19.3619 19.2621 19.0045 18.6619 17.8609 17.8374 17.7919 17.6739 17.3256 17.1603 16.5867 16.5116 16.0693 48.9354 15.9626 31.7556 15.8659 15.7909 98.1419 15.7102 15.2316 15.2181 15.0763 14.4565 14.3255 14.1288 14.0768 13.9835 13.751 13.7318 21.6437 12.9056 12.6239 12.4213 12.3882 29.9138 12.2638 12.8064 12.1413 26.6254 12.0461 11.9169 11.9 21.3812 11.4584 11.3893 10.6315 10.5887 13.7405 10.3935 10.3115 10.0448 9.94577 9.80734 9.39861 9.17708 9.07637 9.06244 8.96386 8.78432 8.71668 39.8015 13.8406 8.66754 8.4636 8.39667 8.32296 8.27616 45.6761 7.99227 7.95851 7.94153 7.7021 7.694 13.873 21.9174 37.3882 74.7566 123.382 64.4393 7.62075 7.60758 34.7204 7.56507 7.40415 8.23896 7.27456 7.60714 7.04214 6.63411 6.61126 6.54373 6.40129 6.26689 5.97877 5.80519 18.929 20.5271 78.2519 5.80164 5.66497 5.65581 10.386 6.3962 5.52168 5.51605 30.4916 7.05813 7.49799 8.22824 5.42263 5.28439 5.22289 5.10132 6.4812 4.94874 4.89955 4.88821 4.86573 4.60743 4.57973 4.5322 4.48551 4.32714 4.25867 4.2566 4.20164 5.16102 4.15678 4.06894 4.05259 4.03723 3.94759 3.86113 3.82514 3.81251 3.66608 8.58417 4.07256 3.62122 3.56561 3.51465 3.26695 3.9054 3.25456 3.20668 3.1578 3.13628 3.1166 3.01416 2.95153 2.94894 2.82656 2.81112 2.80395 2.79812 2.58311 2.49891 2.41459 2.34632 3.0227 2.29169 2.19603 2.16774 2.16002 2.1319 4.47748 2.10967 5.60476 2.05682 2.0136 1.95205 2.16039 1.8874 1.84655 1.77398 1.7667 1.71491 1.675 1.66434 1.52776 1.5249 1.48694 1.44767 1.4444 1.40429 1.39933 1.3064
threshold=0.96822385974689251 0.35671771269291525 -0.77857238627775149 1.9225261164403007 -0.28742211825866432 -2.5336748703693464 1.0773393013244736 0.38300304965964438 -1.505549325403517 -0.71301588266206573 -0.71301588266206573 0.21105136179625125 3.3651044426636489 0.060420633610162873 0.088617829506447879 1.0188870942523052 0.23170606908290334 -0.62859573119632239 -0.66564212279465884 0.33771730443713416 0.11898353970985652 0.35542896195020895 -0.12683276286982267 0.059810731213079761 0.48895239158027498 0.54530231546079777 0.063918727708980203 0.11811061499345514 1.0846935614616378 0.6424864654831014 -1.1222563864682009 -0.61084832530038125 -0.04191551867074015 0.26590399254384295 -0.94249519423467099 -0.066898381211782529 0.57492494423129847 0.82739458844879266 0.54638208920958542 0.35742488795997468 0.40223240144379452 1.0188870942523052 -0.77808169163022989 -1.985186827990437 -0.55499704582291354 -1.4023563789075408 0.41824946920333633 1.0000000180025095e-35 0.51340842407225218 -0.96882269203892546 0.034697374219198392 -0.77857238627775149 1.5439907841530094 -0.066898381211782529 0.044796763778553371 -0.55499704582291354 -1.0104818485114933 -0.1468636428063588 -0.56183535696440934 -0.12026571473851573 -0.29239245007666698 -0.40522021719560847 -0.53143626197107741 -0.06210854715793767 0.8200934910191453 0.41796049608143071 1.0000000180025095e-35 0.6424864654831014 2.7844513167148541 0.13139407086745888 0.61294540627986538 0.79212541520609758 0.34772515228281681 0.90149721037248176 0.29953666265376772 2.6450893441677317 -0.40522021719560847 0.98310288818975078 4.1596873369298484 -0.13329001718038583 -0.043973382521846682 0.21988425667432429 0.44949575992439605 0.23170606908290334 -0.436471293403143 0.3316715922567951 -1.4013910966717351 2.4863229103879121 -2.2845416482360066 0.71520341917773844 0.75396415198535038 -0.093391406794604878 -0.47363233160906665 -0.89278173773130154 1.2784149980997983 -0.15907498458282018 0.5256897228170786 0.24879885764727575 0.38300304965964438 0.96038335243084816 0.82739458844879266 0.063918727708980203 -0.081291379810567485 -0.83625603203970789 -0.88510416884720799 -0.06210854715793767 2.0741622861929288 0.12686218819550713 0.40223240144379452 0.94236748506668644 -0.51762467745587626 2.2559428210859207 -0.74589554209825037 -0.75287883981648052 -0.16793194469656078 -0.62859573119632239 -0.94598963539681735 0.45200558215436065 0.77914895345122359 -0.47998590717052853 -1.505549325403517 2.1420830062001532 -0.47998590717052853 -0.22071857866332883 -0.20487988585091152 -0.53096402669144227 -0.043973382521846682 0.38300304965964438 0.61719849882981881 -0.47998590717052853 -0.19999735682830463 0.5457849727685975 -0.25883065459685151 -0.066898381211782529 -0.47998590717052853 -0.15907498458282018 1.0000000180025095e-35 0.21105136179625125 0.56701713464972292 -0.4999058404611591 -0.43823683500527383 -2.0166516539325254 0.044796763778553371 1.4907625356968432 -0.61219725803186398 -0.65004650857635593 -0.22344599258819062 0.78783664503637429 0.31025971547932318 -0.61219725803186398 1.1993506451313063 1.0000000180025095e-35 0.88980429516551418 -0.1916643204326218 0.51340842407225218 0.11811061499345514 0.35542896195020895 0.6211209268655854 0.034697374219198392 -0.46663780495365809 -0.33206642552941829 -0.13329001718038583 -0.31271120423976168 0.2027242624040865 -0.081291379810567485 -1.1222563864682009 -0.23521854194122768 0.61155221362792789 1.0846935614616378 -0.28204267499860597 -0.62859573119632239 1.5454772967258974 0.40223240144379452 -0.39100757774391887 -0.89143693135883917 0.38300304965964438 1.0000000180025095e-35 0.51340842407225218 0.067359308264174772 -0.2408487833327547 0.41796049608143071 -0.38409861133627615 -0.52552110432687194 1.1842768240472126 0.88869825956877657 0.51340842407225218 2.0323058244151064 0.7001391034581218 0.30185520902060897 -0.24326536584619043 -0.83101409773467061 -0.06210854715793767 0.24266583843202424 -0.081291379810567485 0.040744555440206345 0.40223240144379452 0.44949575992439605 0.23170606908290334 -0.3316618483714337 -0.35001082679817125 -0.065865143320409644 0.86359742788656446 2.7844513167148541 0.17707184064755854 0.48080083263355317 0.040744555440206345 2.6450893441677317 -0.56368712008033872 0.034697374219198392 -2.5336748703693464 -0.43823683500527383 -0.18736390467909506 -0.53096402669144227 -0.47998590717052853 -0.47603130106355324 1.621861885868255 1.2975119627455012 1.0000000180025095e-35 -0.32777808557189819 0.38300304965964438 -0.436471293403143 0.48080083263355317 0.13139407086745888 -0.47998590717052853 0.16526105236210245 1.7495097852367081 1.1835149670891372 -0.13626232030473537 -2.8110041476256611 -0.06210854715793767 -0.436471293403143 0.75396415198535038 0.47799704004376603 0.24879885764727575 -0.25883065459685151 -0.56183535696440934 -0.090875873580651009 0.11811061499345514 0.69968222132657709 -0.72028169372315443 -0.093391406794604878 -0.24326536584619043 -1.1222563864682009 -0.61084832530038125 0.88980429516551418 -0.090875873580651009 0.51340842407225218 0.031987336504343843 0.90149721037248176 0.040744555440206345 -0.33533693110735635 -0.29486591714594584 0.2027242624040865 0.081170522028989153 0.97725159582040921 0.6424864654831014 -0.49022269340295327 -0.27670080847101847 0.34772515228281681 0.23170606908290334 -0.36882615415291203 0.031987336504343843 0.26590399254384295 -1.0586723196098762 1.4064669565691894 -0.036179980410662491 -0.043973382521846682 0.034697374219198392 -0.030504075794028963 -0.33533693110735635 -0.40522021719560847 -0.06210854715793767 0.68898753945659774 0.21988425667432429 0.034697374219198392 0.41456403470362985 0.51648196058697282 -0.40692031766703057 -0.79831156917205037 -0.83101409773467061 -0.65881576430220112 -0.33206642552941829 -0.29018532897450255 -0.38409861133627615 -0.47363233160906665 -0.56598465816747978 0.11569861748571268 -0.40692031766703057 0.57844639821157251 -0.22071857866332883 -0.22071857866332883 0.23170606908290334 -0.3316618483714337 2.2559428210859207 -0.84485258880111169 1.8989056534963693 0.16526105236210245 -0.13626232030473537 0.61719849882981881 0.83790566886712936 -0.15907498458282018 1.1842768240472126 0.47799704004376603 -0.071396759318438183 -0.47998590717052853 -0.2408487833327547 0.44329823750770753 0.86359742788656446 0.060420633610162873 0.41824946920333633 0.25202384456823429 -0.1916643204326218 0.15985558878710684 0.69968222132657709 -0.1916643204326218 0.24879885764727575 -0.04191551867074015 1.1842768240472126 1.0231814183529406 -0.52552110432687194 -1.1723295047147693 0.24879885764727575 -0.066898381211782529 -0.036179980410662491 -0.433628617213766 -0.20487988585091152 -0.42366458308994981 0.55186722535171717 -0.92603701430902674 -3.330833833182226 1.1993506451313063 -1.1609969619813321 -4.3894388379022056 -0.3316618483714337 0.66010549578498001 1.3785718699838279 0.11898353970985652 0.44329823750770753 0.86359742788656446 0.45200558215436065 0.11811061499345514 -0.53096402669144227 -0.108889743779205 -0.066898381211782529 -0.043973382521846682 0.40223240144379452 0.56701713464972292 0.30185520902060897 1.1842768240472126 0.79212541520609758 1.4907625356968432 0.57492494423129847 0.029360098189058624 1.2029765626443252 0.15985558878710684 0.44329823750770753 -0.75213627031338592 0.51648196058697282 0.2820715452811996 -0.036179980410662491 0.41796049608143071 -0.33533693110735635 -0.04191551867074015 -0.24326536584619043 -0.70487522040090889 -0.32777808557189819 -0.071396759318438183 1.0000000180025095e-35 0.77914895345122359 -0.22071857866332883 0.41796049608143071 0.12686218819550713 2.0610732826372291 -0.033292687262984531 0.30185520902060897 0.26590399254384295 0.11811061499345514 0.059810731213079761 0.13139407086745888 -0.37511080432518412 0.11898353970985652 -0.19999735682830463 0.15978948209703189 0.13407493975036786 2.1420830062001532 0.41824946920333633 0.063918727708980203 0.61155221362792789 -0.79490435691768369 -0.84485258880111169 0.13139407086745888 0.11898353970985652 -0.033292687262984531 -1.1602412944240932 0.26507835107293359 1.0000000180025095e-35 0.18007096631934114 -0.436471293403143 0.45200558215436065 -0.7029963726973445 -0.70590441256387415 0.6211209268655854 -1.0607870207744927 -0.37511080432518412 0.58712067067840412 -0.83101409773467061 -1.505549325403517 -0.22344599258819062 -4.3894388379022056 -4.3894388379022056 -0.066898381211782529 -0.7029963726973445 1.3785718699838279 -1.505549325403517 -0.79831156917205037 0.51903500717844198 -0.75287883981648052 0.41456403470362985 -0.92603701430902674 -0.23521854194122768 -0.94249519423467099 0.081170522028989153 -0.47363233160906665 3.3651044426636489 -0.12026571473851573 -1.4023563789075408 1.7783924381454081 1.2742175973862153 -1.505549325403517 -0.071396759318438183 -1.0586723196098762 0.58712067067840412 0.3316715922567951 0.62313929187287231 -1.1602412944240932 1.3785718699838279 0.33771730443713416 -0.27670080847101847 0.88980429516551418 -0.081291379810567485 1.0000000180025095e-35 1.2413974709680944 2.0323058244151064 4.5590381650599818 -0.030504075794028963 -0.2408487833327547 0.40713959302307429 -4.3894388379022056 -0.22344599258819062 -0.88510416884720799 0.44949575992439605 0.56701713464972292 -0.47603130106355324 -0.1916643204326218 0.17707184064755854 -0.25883065459685151 3.3651044426636489 0.21637489395125256 1.4907625356968432 0.12686218819550713 2.1420830062001532 0.51648196058697282 1.0831963286318731 0.30601555235929695 -0.47998590717052853 2.6013262326483826 -1.1602412944240932 -0.19999735682830463 -0.65881576430220112 1.0831963286318731 3.9818507920099724
decision_type=2 2 2 2 2 2 2 2 2 2 2 2 2 2 2 2 2 2 2 2 2 2 2 2 2 2 2 2 2 2 2 2 2 2 2 2 2 2 2 2 2 2 2 2 2 2 2 2 2 2 2 2 2 2 2 2 2 2 2 2 2 2 2 2 2 2 2 2 2 2 2 2 2 2 2 2 2 2 2 2 2 2 2 2 2 2 2 2 2 2 2 2 2 2 2 2 2 2 2 2 2 2 2 2 2 2 2 2 2 2 2 2 2 2 2 2 2 2 2 2 2 2 2 2 2 2 2 2 2 2 2 2 2 2 2 2 2 2 2 2 2 2 2 2 2 2 2 2 2 2 2 2 2 2 2 2 2 2 2 2 2 2 2 2 2 2 2 2 2 2 2 2 2 2 2 2 2 2 2 2 2 2 2 2 2 2 2 2 2 2 2 2 2 2 2 2 2 2 2 2 2 2 2 2 2 2 2 2 2 2 2 2 2 2 2 2 2 2 2 2 2 2 2 2 2 2 2 2 2 2 2 2 2 2 2 2 2 2 2 2 2 2 2 2 2 2 2 2 2 2 2 2 2 2 2 2 2 2 2 2 2 2 2 2 2 2 2 2 2 2 2 2 2 2 2 2 2 2 2 2 2 2 2 2 2 2 2 2 2 2 2 2 2 2 2 2 2 2 2 2 2 2 2 2 2 2 2 2 2 2 2 2 2 2 2 2 2 2 2 2 2 2 2 2 2 2 2 2 2 2 2 2 2 2 2 2 2 2 2 2 2 2 2 2 2 2 2 2 2 2 2 2 2 2 2 2 2 2 2 2 2 2 2 2 2 2 2 2 2 2 2 2 2 2 2 2 2 2 2 2 2 2 2 2 2 2 2 2 2 2 2 2 2 2 2 2 2 2 2 2 2 2 2 2 2 2 2 2 2 2 2 2 2 2 2 2 2 2 2 2 2 2 2 2 2 2 2 2 2 2 2 2 2 2 2 2 2 2 2 2 2 2 2 2 2 2 2 2 2 2 2 2 2 2 2 2 2 2 2 2 2 2 2 2 2 2 2 2 2 2 2
left_child=1 4 7 6 159 37 51 27 35 56 317 42 28 14 17 16 88 58 364 20 21 26 23 61 39 34 49 44 29 30 166 32 33 67 -18 36 47 62 73 41 76 54 68 -37 53 188 266 48 -6 50 119 74 99 280 55 237 -8 122 -7 123 117 151 291 101 145 80 158 156 133 70 103 72 -72 114 244 108 125 84 330 172 81 130 200 132 228 140 -50 89 -16 120 107 247 -62 95 202 255 109 112 135 100 142 189 -103 104 173 -106 218 437 350 110 193 290 -90 -35 206 -25 -78 -61 -88 283 -29 -32 355 308 -125 216 127 153 182 -77 -66 225 -60 134 -12 137 287 150 297 323 374 -142 143 170 -144 147 -135 336 210 246 -56 -23 316 -112 155 213 157 208 -64 356 -161 162 251 164 165 -164 372 258 169 176 -26 180 -65 174 -22 304 -118 -151 179 212 -172 265 314 -93 -132 271 187 289 -46 -36 -70 -178 -115 -53 195 196 197 198 -147 -199 -63 219 234 264 205 -205 -31 -156 -15 278 -28 382 -170 -24 215 315 -41 -138 294 -117 -9 222 223 224 -21 276 -213 -225 -58 279 257 424 -134 245 235 -95 -98 422 -87 -230 299 -242 243 -223 292 376 -114 375 -238 250 -82 252 253 254 467 394 401 463 -109 337 -84 446 -141 -45 -146 -139 267 268 269 270 -19 -184 273 274 -268 439 277 -122 -49 -100 428 -282 -101 -20 -83 438 -74 -137 -192 -116 311 319 -2 335 434 388 -297 298 -105 367 387 -302 -278 -239 -171 -186 -280 -136 -51 -177 -279 -42 -143 -314 -128 -133 -129 318 329 405 -321 363 -323 -140 -67 -14 -327 -206 373 447 331 -79 -320 -330 -145 -190 -33 348 352 -185 -246 -296 -294 344 -243 -345 442 -173 -216 -123 351 -30 -209 -183 -71 -57 -1 -358 462 -360 361 -361 -363 -281 -10 -366 -159 368 -236 -166 -371 -265 -13 400 -86 -92 -59 -107 379 453 381 431 -212 -308 385 466 -387 -237 389 -244 391 392 -390 -339 -44 452 397 -197 -299 -234 429 -158 -99 458 -160 -4 -369 -195 469 -305 -411 417 -263 423 -224 440 -226 470 -326 -269 -421 -422 -11 -204 -47 -332 -427 -405 -3 -241 -319 -381 -229 -402 -34 -342 -222 -48 -261 -274 -301 -188 443 -290 -303 -424 -155 -5 -333 -450 -196 -452 -352 -163 455 -356 -415 -340 -180 -396 -432 -385 -359 -231 -318 -458 -331 -162 -454 -375 -386
right_child=3 2 5 10 8 13 9 220 18 24 11 12 325 31 15 -17 25 46 19 221 69 22 154 115 52 -27 148 87 75 38 121 64 106 113 63 43 -38 -39 -40 40 111 -43 93 263 45 231 90 209 86 59 -52 96 -54 -55 98 57 77 233 83 60 92 82 66 79 65 324 -68 -69 190 354 71 -73 286 -75 -76 129 116 78 -80 -81 249 284 260 -85 85 238 118 -89 97 -91 91 183 -94 94 -96 -97 236 402 229 282 -102 102 -104 138 105 377 -108 167 -110 -111 126 -113 149 192 186 201 168 -119 -120 -121 131 349 -124 124 -126 -127 128 152 -130 -131 184 214 232 146 307 136 217 181 139 262 141 312 144 334 203 194 -148 -149 -150 177 -152 -153 -154 261 207 -157 256 366 404 160 161 378 163 -165 369 -167 -168 -169 178 175 171 347 -174 -175 -176 309 191 -179 403 -181 -182 353 185 339 305 -187 441 -189 293 -191 288 -193 -194 407 450 396 -198 199 -200 -201 -202 -203 413 204 327 -207 -208 338 -210 -211 211 226 -214 -215 259 -217 -218 -219 -220 -221 436 242 414 227 416 -227 -228 432 239 230 -232 -233 399 -235 240 300 248 303 -240 328 241 343 295 -245 340 -247 -248 -249 -250 -251 -252 -253 -254 -255 -256 -257 -258 -259 -260 285 -262 412 -264 371 -266 -267 272 419 -270 -271 -272 -273 275 -275 -276 -277 302 310 306 321 281 -283 -284 -285 -286 -287 -288 -289 346 -291 -292 -293 342 -295 341 296 -298 398 -300 415 301 444 -304 409 -306 -307 383 -309 -310 -311 -312 -313 313 -315 -316 -317 464 430 332 320 -322 322 -324 -325 418 326 -328 -329 333 384 425 448 -334 -335 -336 -337 -338 393 457 -341 435 -343 -344 345 -346 -347 -348 -349 -350 -351 395 -353 -354 -355 454 -357 357 358 359 360 -362 362 -364 -365 365 -367 -368 406 -370 370 -372 -373 -374 408 -376 -377 -378 -379 -380 380 -382 -383 -384 461 411 386 -388 -389 390 -391 -392 -393 -394 -395 459 -397 -398 -399 -400 -401 433 -403 -404 427 -406 -407 -408 -409 -410 410 -412 -413 -414 456 -416 -417 -418 -419 -420 420 421 -423 445 -425 -426 426 -428 -429 -430 -431 460 -433 -434 -435 -436 -437 -438 -439 -440 -441 -442 -443 -444 -445 -446 -447 -448 -449 449 -451 451 -453 468 -455 -456 -457 465 -459 -460 -461 -462 -463 -464 -465 -466 -467 -468 -469 -470 -471 -472
leaf_value=-0.33877598447048007 0.044002377177926259 0.28007352462631874 0.34707580696321688 0.32540103468568438 -0.34578418429266006 -0.33802710046158752 -0.21013613077908622 -0.1135626264382503 -0.33405021825259473 0.30263735181185836 -0.11753867097753309 0.36588600613759414 0.32630570644107643 0.073095072635778455 0.18610631579360373 -0.34229060123519756 -0.33892947743713719 -0.34345252524951958 0.32595762857794203 -0.24929454111849775 -0.33184455579460559 -0.32774881346294482 0.14820211722701626 -0.07875683830829236 0.15479750384237256 -0.32728127985146138 -0.32812043246438044 -0.11543571833120989 0.02118006616181593 -0.059572299311272663 -0.051769110637808945 -0.14940527347021162 -0.24701661170679814 -0.33201788059906112 0.14105904352280965 0.19755172609456811 -0.34663032941314498 -0.3494629228893712 -0.352843352389969 -0.030631445383063408 -0.10803407613825514 -0.2172821740245611 0.2175701219608665 -0.14921642305735069 -0.079953222316342984 -0.24859536275743305 -0.33546882606148537 0.11638795376150034 0.34368915663877048 -0.32663791501581496 -0.32600414317284149 0.0067645750089427208 -0.33929557611053507 -0.3118359010945515 0.23475740167706716 0.19998436485191262 0.084131130271612134 -0.32462740767115678 -0.049509641160476084 -0.2804258950033483 -0.23107729318699613 -0.27341753081956327 -0.01526871528662874 0.2103125215027396 0.38171128037769508 -0.19226692670068171 -0.33895734093194996 -0.26808969317901615 0.065600735375067137 -0.25088537260577204 -0.24534090606223677 -0.34169485767354285 0.32688308817104939 -0.21103041644423998 -0.20769910466883007 0.12563902628282494 -0.14106621980432762 0.30659337248888435 -0.13853300272092467 -0.31994323128234337 -0.29210872396392568 -0.10559810722739314 0.24882957857261492 -0.21204191600692568 0.21327087514903223 -0.21667811394176373 0.16206048221421657 -0.10929350235514294 -0.35068008031836345 -0.16348628141603125 -0.34321105460609774 -0.041223037503427817 0.12493749531674461 -0.0039793873904339777 -0.21989965825085692 -0.2140349350210308 -0.32112503382680135 -0.2612541494698567 0.1620059110953527 -0.05627147532663581 -0.18960398194301251 0.17435199779666971 -0.2698228455579097 -0.1526976829417438 -0.26149714635628718 0.26722104956289111 0.055966213712228811 -0.10814797949667207 -0.0049794173250502062 -0.29078298270991798 -0.10258226025550893 0.065380667724012922 -0.3461547039495807 0.10549322578864802 0.17196790452372587 0.21714527987104734 0.15454024675958586 0.10682785630241802 -0.32548185838062682 -0.097275297967719304 -0.0072446882477144679 -0.33838077370793129 -0.13849081945636024 -0.23643861071097885 -0.035457746884319338 -0.22529215197358943 0.33409244233497581 -0.1488775846989073 -0.18993690148928724 -0.31727190991654963 -0.088944030590083351 0.14302349417770488 0.083022985489698206 -0.24852002102587586 0.13648558578500661 -0.24677383641912584 0.11791780913080778 0.16419571213451536 0.0020035912510099198 -0.31826820527715094 0.28571321679691114 0.098805315444182307 -0.18228719686888756 0.18208351316277011 0.40482823842477356 -0.27895202394906093 0.079966643271248972 0.11405033605170041 -0.075688711533915001 0.017839966680500637 -0.052043107091049187 -0.0094824628589930838 0.072198226458735582 0.12130684533988445 -0.1145049404188538 -0.31293362685209097 0.30023563108715218 0.16353197693403798 0.18786562166196302 -0.33508414287172289 -0.34134879498673193 -0.28885618030330923 0.079363965721208921 -0.33994763470869482 0.10893013832098951 -0.28656965841278392 -0.0085938111465013092 -0.29747529738572798 0.29793171982917571 0.024364371043279823 -0.16792562435504327 -0.33299834223902103 -0.11224076833957633 -0.33030481764508834 -0.055300886090110489 0.38326184026647148 0.069462362770894764 -0.19545336379959274 0.28094719595071188 -0.15403621782897234 0.12456927989496445 0.393088172266989 0.28847139475501354 0.16660501557737409 0.2262140276960227 -0.1142411318376909 0.40198856312293929 -0.026917930167831769 0.17429590753237037 0.27961966855471942 0.13559327172432517 -0.22227436129202488 -0.20385489775440552 -0.29947987311019575 -0.33951594926084616 -0.35005698500533461 -0.33617762528423922 -0.12239764219759201 0.0029758144605899766 -0.32684139612215868 0.015477882278064398 0.07955829519759279 0.23612450721797498 0.18217262272400322 0.39118745225175039 -0.26670477395757086 0.21401273109096572 -0.20362091122927603 -0.20732288836031171 0.046159532675552568 -0.23809065842274846 -0.18266353560613449 0.12425895557999675 -0.12937153274297836 0.19394934169162764 0.28231723340610171 0.26854906379095955 0.35103800404367247 -0.33784805063351764 0.33115283018312092 -0.33430757158528873 0.041446301006476505 -0.2780273248544492 -0.1421611549781078 -0.021373058119470219 0.29105374033128484 -0.33421497708678399 -0.32423849385531234 0.13188979921202496 0.36058738068282387 -0.060164659484811235 -0.10494502794491083 0.28111159814048231 -0.054979070855176344 0.22133882919040218 0.3095259889832786 -0.029837518843728057 0.29382035578036414 0.020286251543359137 0.3583782630321522 0.058201220747061161 0.31012646130463839 -0.11040266166663514 -0.32350229415667625 0.17143532065955486 -0.087241371985902399 -0.13621718936285529 -0.05588000481365029 -0.26893878356809464 -0.34454791324382666 -0.024566649332352013 -0.33567116404790176 -0.33597360546469085 0.016269360470437748 -0.065406038339949166 0.10339218361486997 0.16347543574485435 0.23588365764451941 0.12326708352594312 0.19549041644789134 0.044332878231682166 0.20780853297776988 -0.13997169259869935 -0.25384905274137448 0.21842295547187005 0.30537374117414068 -0.30898854892985067 -0.3322828278589236 0.013152390369187059 -0.32796280604478989 -0.0093804356324987022 0.065496004811720507 -0.40647841878376334 -0.32697653065663074 0.016518916951897996 -0.12339658515011737 -0.08977931820719405 0.11228516579584093 0.20745353258304611 0.24432045438691835 0.049311732691179479 0.2955421805775274 -0.26746424192969204 0.13491954368697079 -0.32246990642403423 0.05465277660442501 0.13160154762371895 -0.036109146605445328 0.25112200554431774 0.33796641080885853 -0.3473549136503673 0.16792130884384371 0.27622719258860856 0.084480003030005621 -0.090428854322287741 -0.33992036695573502 -0.037953958085387859 -0.32062400966689408 -0.33960478777649578 0.34299121383820824 -0.088041321844916351 0.259249178659612 0.10624201889583483 0.36802415623103513 0.172060317453921 0.042235411753612277 0.3988380011588723 0.28963080647677419 -0.17842669863356603 0.26170176058370676 0.27655747000804515 -0.27625290134228203 -0.14069375263425837 0.085887369607668004 0.20288770754275176 -0.033643629167609927 -0.33950863423248018 0.32483729047128501 0.24722227571560998 0.34155481547969452 0.18933532497524921 0.31812951873415213 0.53671763649097437 0.17379161049228045 -0.25895421572682442 0.32436117915163365 0.10714957838278169 0.24464529486155728 0.32047726638760876 0.32951056603526041 0.32314136904200119 0.16727000061108999 0.090036990783703544 0.15711321287569371 0.314925716924918 0.31563326669510344 -0.29362100585127032 0.38140043886418507 -0.34261021285861021 0.31487591306783125 0.23399668659637113 -0.23316385520724206 0.1303173648871202 0.20443585711744722 0.037679720212404039 0.33504764692333777 0.21358331933432001 -0.19930982400639477 0.29441591165039444 -0.22881283388754828 0.31462158065971124 0.31952047417304619 -0.31098539276084236 0.28223872448645565 -0.33621109412246414 0.33121563955083505 -0.33548959409780643 -0.33653532474706888 -0.33528121172163866 -0.32127802074447742 -0.33578479169083042 0.28558079592796803 -0.12025343456854266 0.3287197684730005 -0.1476189248225791 -0.33024557558508594 0.28890403025389333 0.23943182953614231 0.30297267420238416 0.28722783113283112 0.15613686871508858 -0.34219781250036585 0.24879675970042398 0.30009314010420829 0.31274539628564052 -0.21145229003404206 -0.21400034213618166 0.14525106737394902 -0.33643338349434215 -0.34628440703430813 -0.33842703142852881 -0.014677580402336323 -0.32800625276579592 0.32645208406346882 0.28522525093609308 0.13936369076395833 0.26555827036824181 0.41803141266638311 -0.26871420333680779 -0.32829481103071972 -0.341754511942304 -0.33474448042265792 -0.32120955660184586 0.2979343123561175 0.27092094946599782 0.21714101339524519 -0.34564240234761562 -0.22334909536697417 -0.24778957798733281 0.37389208172415189 0.35103651902987443 0.40392478143913302 -0.34477283150976268 0.29131998771555578 0.284655254870122 0.43700383763482603 0.31377345904822124 -0.19999561667806315 0.25525677163969712 0.40905881469613953 0.50908549604102971 0.31242994402330171 0.31018891720600755 0.31745561135291184 -0.34095371025314242 0.31553550158331922 0.082642174472163391 0.21570714056588855 -0.33187998275401737 -0.23429042617909629 -0.33099390773988568 -0.2794833665682146 0.19179599895015759 0.31552329214178909 -0.32501413486393127 0.31218717473932944 0.27662280803961442 0.23088935868875549 0.35053694833974375 0.27150666283418318 0.28935847973232315 -0.26730174744953217 -0.25297110425410801 0.42147255334854145 -0.31644539045208192 0.30533652049100302 -0.27666856549498137 -0.27593920352939921 0.27391665901191908 -0.33841404515281265 0.40186249156285486 0.47568763628997857 0.33491159059289899 0.33397876131240761 0.32222986004382753 0.26638932484337396 0.046557208753910832 0.3083314437732545 0.17466407650878149 0.28149582934927786 -0.26322026628542111 -0.33398095519717236 0.30257360625775875 -0.33450160032231913 -0.33793380891883529 -0.26149739243944892 0.3296133891444592 -0.39501874635766177 0.31980243368336109 0.32803637036061578 0.31555506976925479 0.26593517076014622 -0.31355747360163333 0.41214467721558079 -0.27444584130598421 0.296495372329035 0.28787294639183575 -0.28486328840432334 0.24757872962628266 0.35229578941404488 0.32630896854708846
leaf_weight=7790.5486299842596 54.527227565646172 64.048878774046898 94.475410893559456 2184.7475800514221 95.552556842565536 61.077198266983032 43.341067060828209 47.751167699694633 2325.3095222711563 51.757416695356369 45.638953700661659 42.901231989264488 538.78166881203651 59.153285518288612 46.154166117310524 306.54848924279213 60.744903773069382 37.698898822069168 105.1867755651474 67.46210740506649 68.888820230960846 137.24170370399952 40.187121763825417 52.316395148634911 48.845800831913948 102.84976635873318 637.61332303285599 40.952657669782639 38.257745832204819 59.983359515666962 71.996419221162796 40.50350546836853 65.635916382074356 169.75473885238171 143.21207296848297 62.978635489940643 91.9160335958004 56.356778964400291 48.618246898055077 36.912613958120346 40.215745821595192 70.985844343900681 38.19447273015976 44.088046923279762 38.855183929204941 37.191812679171562 150.07588595151901 41.619501248002052 64.674807697534561 329.12664467096329 57.285344049334526 52.740180432796478 69.60489210486412 37.359626367688179 75.63090468943119 41.999908536672592 37.370275676250458 90.979265823960304 52.546199515461922 216.38820269703865 57.876251995563507 56.713076621294022 76.037152469158173 82.14169842004776 46.260853737592697 40.4733667075634 49.388088881969452 52.117233425378799 52.137062326073647 59.81058706343174 48.958079785108566 74.266762390732765 75.617967858910561 43.126709327101707 52.568260818719864 42.262564092874527 39.803018152713776 215.96929712593555 38.184722974896431 61.465321823954582 41.97763554751873 38.403507426381111 103.58815318346024 52.903927028179169 44.719722643494606 64.644851550459862 38.601642891764641 71.532665148377419 89.800814315676689 47.027262687683105 38.725244849920273 39.155818372964859 273.99015687406063 58.765395790338516 38.63162387907505 56.110119238495827 64.027017146348953 41.442547544836998 36.970839396119118 43.365360572934151 68.449369892477989 293.21093292534351 55.287205308675766 94.473421156406403 40.258832141757011 46.28668674826622 46.782154649496078 38.148651927709579 75.321250721812248 56.256598711013794 57.445730328559875 54.396256819367409 53.225829318165779 46.301579281687737 39.280686169862747 371.44591699540615 47.224817648530006 37.173383787274361 41.168410375714302 43.175935223698616 40.039384409785271 319.34828235208988 37.013505473732948 393.01257187128067 187.48328846693039 65.947467520833015 81.394198030233383 39.021603479981422 38.934643462300301 40.839091211557388 69.973689153790474 36.550166830420494 37.795824214816093 68.506736069917679 58.053651541471481 39.858573362231255 57.309788808226585 125.44975756108761 47.539076268672943 183.6572827398777 71.417841762304306 65.72977389395237 59.831425026059151 49.203021243214607 65.105763033032417 93.543403759598732 57.204349145293236 36.582024201750755 75.401588305830956 217.36562180519104 76.326774001121521 39.529622405767441 39.857707962393761 37.910115644335747 50.915466770529747 59.249696329236031 48.462502583861351 61.166233494877815 40.703461095690727 1914.3257295191288 62.187416240572929 54.54290734231472 43.321443125605583 116.83755899965763 40.619103908538818 71.039667159318924 43.528513133525848 37.145247668027878 147.61584301292896 46.442541167140007 45.848717018961906 47.113817244768143 38.61247244477272 166.85267578065395 121.35617437958717 61.751539051532745 37.99570620059967 75.070138990879059 81.001014575362206 38.675740972161293 75.539439514279366 189.18900671601295 43.698031604290009 36.404525011777878 56.82406510412693 40.027984276413918 46.82192987203598 50.828903347253799 51.264612391591072 626.00329604744911 36.548466444015503 73.23396734893322 42.240211814641953 39.173395410180092 889.42031735181808 40.579195842146873 315.47606520354748 67.204549476504326 186.06660275161266 207.70685079693794 40.468241706490517 70.491193756461143 47.521292135119438 148.73824791610241 40.389882266521454 40.23678320646286 42.600841119885445 46.118315011262894 39.059061378240585 47.500255659222603 39.74891684949398 510.4798070192337 100.70952646434307 52.821164935827255 86.517557591199875 82.135851457715034 39.244604304432869 68.156704738736153 367.15614680945873 194.66860084235668 155.7772428393364 38.723150238394737 63.486704051494598 73.925403669476509 36.379664480686188 45.85012298822403 82.105796337127686 186.18934917449951 44.324266642332077 43.317178308963776 67.101080417633057 43.49086931347847 82.686551511287689 57.015320792794228 105.33052495121956 60.501906111836433 57.012864589691162 69.668257057666779 39.484871834516525 45.494589477777481 61.448927581310272 104.64282070100307 39.099855601787567 103.36518135666847 40.239770457148552 41.431467205286026 67.338071092963219 40.447129979729652 37.845027655363083 69.528803557157516 40.337211206555367 487.68403176963329 163.21357667446136 40.126719415187836 43.343842819333076 43.73881122469902 58.470800414681435 73.588000312447548 56.085118964314461 40.446404501795769 39.803315550088882 43.908342763781548 45.601637586951256 59.021656975150108 64.879077151417732 101.95191575586796 53.868153318762779 861.7716376632452 44.161744952201843 208.16109108924866 39.191385582089424 42.98290291428566 55.888212695717812 72.74463714659214 70.835633739829063 37.688359931111336 47.59567753970623 56.636474177241325 73.465077012777328 58.057543158531189 39.204526916146278 39.219452783465385 48.703197106719017 36.894952058792114 46.756970167160034 39.923695087432861 37.784269317984581 43.154287755489349 48.503565341234207 216.25849416851997 94.92752243578434 40.446539714932442 44.783758208155632 49.001005217432976 50.993038490414619 87.324601843953133 40.419523075222969 1009.2614873945713 92.744114026427269 52.449292972683907 38.046780452132225 36.635349035263062 37.742930352687836 55.318329647183418 158.48810321092606 38.448038339614868 44.265130892395973 68.616413503885269 36.819596111774445 238.37188060581684 50.438269212841988 66.207336947321892 48.072270140051842 39.573066279292107 73.408080399036407 48.397992625832558 37.141678526997566 13790.679017499089 50.56780318915844 63.666341438889503 51.452008605003357 77.051316633820534 45.709004029631615 37.667016223073006 42.261744126677513 60.439771205186844 38.001730650663376 85.890008360147476 38.947901695966721 52.218929424881935 1310.4678538143635 38.994724959135056 37.883193835616112 40.658983364701271 72.467425748705864 51.268834680318832 60.602799996733665 43.831481918692589 107.38214199244976 51.081903785467148 35.920774579048157 40.758472919464111 40.413309395313263 52.528396710753441 37.500216290354729 203.96305830776691 47.109451144933701 50.528858736157417 84.818158939480782 40.185265123844147 248.38165307044983 85.393978923559189 157.97042661905289 40.481322780251503 42.628351852297783 50.968670651316643 3189.8891819864511 675.40198037028313 269.28221896290779 73.522053629159927 144.78474479913712 40.797578647732735 39.788984894752502 1074.320653244853 64.425237432122231 318.8737760335207 41.654421254992485 41.452649772167206 160.86333410441875 47.516467913985252 43.797717645764351 218.07254150509834 59.417855769395828 50.381681233644485 142.66531239449978 37.240151211619377 37.120857626199722 37.418011799454689 615.28378686308861 85.191769480705261 110.65483567118645 65.292934224009514 523.85383808612823 55.521682471036911 227.79054729640484 40.187151655554771 42.59764176607132 40.183401733636856 253.14632385969162 214.25769627094269 1280.0917645990849 680.30026806890965 391.41871139407158 467.56430885195732 38.152031049132347 40.033973440527916 524.32759273052216 42.606279566884041 50.428697526454926 45.389817431569099 58.858400627970695 44.8766700476408 189.55152013897896 106.47449976205826 64.183110803365707 40.927124306559563 1462.9526501595974 50.990260913968086 69.577353686094284 76.204587236046791 40.763437196612358 1200.2182630002499 36.68389256298542 927.38476900756359 303.12733192741871 55.752249211072922 37.123618349432945 38.089701175689697 291.39919295907021 70.034967735409737 356.74618783593178 101.50885899364948 44.369055956602097 75.200455322861671 185.69606530666351 1097.166208922863 185.90692715346813 80.63061785697937 69.152040153741837 40.920326396822929 166.47052194178104 36.846575334668159 36.552054241299629 63.863314285874367 60.556411519646645 140.18683637678623 60.476533725857735 55.913938239216805 55.64608770608902 59.02429361641407 127.0228067189455 44.774341970682144 171.50162263214588 42.558153361082077 158.16932295262814 37.488612085580826 42.218432709574699 462.46671465039253 37.75345841050148 43.437552705407143 73.896667435765266 261.81852661073208 48.488619849085808 567.14463751018047 1150.8874426782131 37.413986682891846 3483.6456507146358 51.076833143830299 238.9840013384819 103.59103915095329 566.39785003662109 40.888800531625748 213.62849079072475 93.381315425038338 37.043446272611618 71.225747510790825 243.27805963158607 37.279524505138397 47.151211231946945 55.626762852072716 48.297985196113586
leaf_count=35720 247 301 398 10312 430 282 198 218 10734 228 209 183 2527 257 194 1402 266 172 470 307 319 629 171 229 223 466 2965 186 178 262 331 189 303 779 609 287 415 255 219 173 180 324 178 203 176 172 693 193 271 1523 263 232 321 169 326 189 174 420 243 1000 270 260 332 360 189 186 224 231 239 271 223 340 333 194 244 197 183 1018 172 270 188 180 456 241 200 302 164 332 404 220 176 180 1181 265 169 256 294 186 167 193 309 1249 250 436 188 218 217 177 333 253 264 250 240 204 167 1605 221 161 183 200 187 1445 168 1778 825 303 358 179 178 188 325 166 165 309 260 177 245 534 223 856 336 305 266 231 270 426 257 172 337 951 333 179 188 175 229 271 201 266 183 8854 284 252 195 537 178 322 197 171 696 216 212 219 168 768 566 276 179 328 382 178 354 794 191 170 267 179 195 224 239 2706 170 341 191 180 4080 185 1451 299 803 952 181 310 221 645 167 181 185 207 173 220 183 2300 471 236 401 387 185 285 1685 818 721 170 286 333 164 216 381 863 206 179 299 201 380 267 492 267 249 310 186 199 278 490 173 475 188 188 298 187 171 313 177 2234 753 176 194 203 254 332 258 182 179 203 205 264 275 444 242 4004 204 966 183 194 243 330 306 164 222 258 339 256 180 178 217 173 216 187 170 190 226 947 424 189 208 228 236 400 187 4691 427 226 175 172 171 232 737 177 186 304 166 1119 238 297 223 185 320 226 170 65097 236 271 222 351 189 177 193 284 172 399 170 236 6184 183 178 178 342 242 283 182 490 241 169 190 183 245 169 891 219 234 400 185 1161 403 720 172 196 225 14701 3096 1247 343 665 171 177 4943 301 1476 181 194 733 199 187 996 278 236 673 171 173 176 2836 390 509 286 2439 262 1071 187 200 168 1172 987 5820 3146 1820 2189 180 188 2390 191 234 194 249 183 859 502 283 169 6808 233 325 314 170 5651 173 4279 1386 246 174 178 1329 322 1647 465 208 354 863 5176 876 378 285 192 783 167 167 268 283 661 281 257 261 271 525 183 774 196 745 169 197 2181 178 205 338 1209 223 2627 5294 170 16308 220 1128 470 2665 184 983 382 171 331 1141 170 222 249 228
